{"learner":{"attributes":{},"feature_names":["hour","cumulative_sales_today","day_of_week","is_weekend","month"],"feature_types":["int","int","int","int","int"],"gradient_booster":{"model":{"gbtree_model_param":{"num_parallel_tree":"1","num_trees":"300"},"iteration_indptr":[0,1,2,3,4,5,6,7,8,9,10,11,12,13,14,15,16,17,18,19,20,21,22,23,24,25,26,27,28,29,30,31,32,33,34,35,36,37,38,39,40,41,42,43,44,45,46,47,48,49,50,51,52,53,54,55,56,57,58,59,60,61,62,63,64,65,66,67,68,69,70,71,72,73,74,75,76,77,78,79,80,81,82,83,84,85,86,87,88,89,90,91,92,93,94,95,96,97,98,99,100,101,102,103,104,105,106,107,108,109,110,111,112,113,114,115,116,117,118,119,120,121,122,123,124,125,126,127,128,129,130,131,132,133,134,135,136,137,138,139,140,141,142,143,144,145,146,147,148,149,150,151,152,153,154,155,156,157,158,159,160,161,162,163,164,165,166,167,168,169,170,171,172,173,174,175,176,177,178,179,180,181,182,183,184,185,186,187,188,189,190,191,192,193,194,195,196,197,198,199,200,201,202,203,204,205,206,207,208,209,210,211,212,213,214,215,216,217,218,219,220,221,222,223,224,225,226,227,228,229,230,231,232,233,234,235,236,237,238,239,240,241,242,243,244,245,246,247,248,249,250,251,252,253,254,255,256,257,258,259,260,261,262,263,264,265,266,267,268,269,270,271,272,273,274,275,276,277,278,279,280,281,282,283,284,285,286,287,288,289,290,291,292,293,294,295,296,297,298,299,300],"tree_info":[0,0,0,0,0,0,0,0,0,0,0,0,0,0,0,0,0,0,0,0,0,0,0,0,0,0,0,0,0,0,0,0,0,0,0,0,0,0,0,0,0,0,0,0,0,0,0,0,0,0,0,0,0,0,0,0,0,0,0,0,0,0,0,0,0,0,0,0,0,0,0,0,0,0,0,0,0,0,0,0,0,0,0,0,0,0,0,0,0,0,0,0,0,0,0,0,0,0,0,0,0,0,0,0,0,0,0,0,0,0,0,0,0,0,0,0,0,0,0,0,0,0,0,0,0,0,0,0,0,0,0,0,0,0,0,0,0,0,0,0,0,0,0,0,0,0,0,0,0,0,0,0,0,0,0,0,0,0,0,0,0,0,0,0,0,0,0,0,0,0,0,0,0,0,0,0,0,0,0,0,0,0,0,0,0,0,0,0,0,0,0,0,0,0,0,0,0,0,0,0,0,0,0,0,0,0,0,0,0,0,0,0,0,0,0,0,0,0,0,0,0,0,0,0,0,0,0,0,0,0,0,0,0,0,0,0,0,0,0,0,0,0,0,0,0,0,0,0,0,0,0,0,0,0,0,0,0,0,0,0,0,0,0,0,0,0,0,0,0,0,0,0,0,0,0,0,0,0,0,0,0,0,0,0,0,0,0,0,0,0,0,0,0,0,0,0,0,0,0,0],"trees":[{"base_weights":[8.147344E2,-2.9145541E4,1.332078E5,-4.8917402E4,4.1365746E4,1.11183766E5,3.3371438E5,-5.7008176E4,-2.119152E3,1.4097185E4,8.53899E4,7.176769E4,1.5392656E5,1.9071002E4,1.2617371E4,-3.1485176E4,-6.881555E4,1.4336193E4,-4.236984E4,8.7394555E4,-7.325113E3,6.4515285E4,1.17995805E5,4.5293473E4,6.67598E3,1.8396223E5,9.822528E4,-4.850343E4,2.3256896E4,-5.3124816E4,-7.2766336E4,8.9393616E2,6.903345E4,-5.838168E4,-3.5445442E3,9.94423E4,2.665951E3,3.010318E4,-1.4910323E4,6.114634E3,4.6260426E4,6.5617314E3,9.6859836E4,4.205818E4,8.465665E3,1.3110439E5,3.1702244E5,4.324572E3,8.257529E3,-2.7683474E3,-1.2344219E3,2.1254685E3,-7.3698895E2,-2.8773809E3,-1.7455891E3,-3.8938254E3,-3.1184917E3,-9.837371E2,7.198863E2,4.304898E3,1.9552979E3,-3.0795457E3,-1.1478519E3,1.3413222E1,-5.607436E2,6.033482E3,3.3061035E3,5.175256E2,2.6674622E3,-1.1299033E3,-4.705321E1,1.6291199E3,2.8789573E3,3.4689297E3,5.527771E3,1.577304E3,3.1541072E3,8.269448E3,4.277962E3,1.9926795E4,1.1039485E4],"categories":[],"categories_nodes":[],"categories_segments":[],"categories_sizes":[],"default_left":[0,0,0,0,0,0,0,0,0,0,0,0,0,0,0,0,0,0,0,0,0,0,0,0,0,0,0,0,0,0,0,0,0,0,0,0,0,0,0,0,0,0,0,0,0,0,0,0,0,0,0,0,0,0,0,0,0,0,0,0,0,0,0,0,0,0,0,0,0,0,0,0,0,0,0,0,0,0,0,0,0],"id":0,"left_children":[1,3,5,7,9,11,13,15,17,19,21,23,25,-1,-1,27,29,31,33,35,37,39,41,43,-1,45,47,49,51,53,55,57,59,61,63,65,-1,67,69,-1,71,-1,73,75,-1,77,79,-1,-1,-1,-1,-1,-1,-1,-1,-1,-1,-1,-1,-1,-1,-1,-1,-1,-1,-1,-1,-1,-1,-1,-1,-1,-1,-1,-1,-1,-1,-1,-1,-1,-1],"loss_changes":[8.361366E12,2.3985492E12,1.6807058E12,5.0838477E11,4.5137553E11,5.819864E11,5.125282E10,3.4289012E11,1.3241287E11,3.6806653E11,9.039892E10,2.9639652E11,2.6299833E11,0E0,0E0,3.4023578E11,4.461088E10,1.04344445E11,3.584961E10,1.6456057E10,5.2118913E10,8.926734E10,2.6784563E9,4.544153E10,0E0,7.1803077E11,3.3618657E10,4.407342E10,6.426968E10,1.0959913E10,2.8188344E10,3.2225106E10,1.0932593E10,3.2471777E9,5.2942746E8,1.8898452E10,0E0,1.3682133E10,1.6302332E10,0E0,8.96118E9,0E0,1.7391124E9,2.6519798E10,0E0,1.0920775E11,1.4733489E11,0E0,0E0,0E0,0E0,0E0,0E0,0E0,0E0,0E0,0E0,0E0,0E0,0E0,0E0,0E0,0E0,0E0,0E0,0E0,0E0,0E0,0E0,0E0,0E0,0E0,0E0,0E0,0E0,0E0,0E0,0E0,0E0,0E0,0E0],"parents":[2147483647,0,0,1,1,2,2,3,3,4,4,5,5,6,6,7,7,8,8,9,9,10,10,11,11,12,12,15,15,16,16,17,17,18,18,19,19,20,20,21,21,22,22,23,23,25,25,26,26,27,27,28,28,29,29,30,30,31,31,32,32,33,33,34,34,35,35,37,37,38,38,40,40,42,42,43,43,45,45,46,46],"right_children":[2,4,6,8,10,12,14,16,18,20,22,24,26,-1,-1,28,30,32,34,36,38,40,42,44,-1,46,48,50,52,54,56,58,60,62,64,66,-1,68,70,-1,72,-1,74,76,-1,78,80,-1,-1,-1,-1,-1,-1,-1,-1,-1,-1,-1,-1,-1,-1,-1,-1,-1,-1,-1,-1,-1,-1,-1,-1,-1,-1,-1,-1,-1,-1,-1,-1,-1,-1],"split_conditions":[1.1E1,5.3324E4,2.44125E5,9E0,1.04764E5,1.2E1,5E0,4E0,1.4E1,1.5E1,1.58676E5,5E0,1.5E1,1.9071002E4,1.2617371E4,3E0,5E0,2.9809E4,1E1,1E1,1.6E1,1.6E1,4E0,1.54538E5,6.67598E3,8.2129E4,5E0,5E0,1.3E1,5E0,5E0,9.327E3,1E1,4.5399E4,1.5E1,1.4E1,2.665951E3,7.8485E4,7.971E4,6.114634E3,1.24584E5,6.5617314E3,5E0,3E0,8.465665E3,1.2E1,5E0,4.324572E3,8.257529E3,-2.7683474E3,-1.2344219E3,2.1254685E3,-7.3698895E2,-2.8773809E3,-1.7455891E3,-3.8938254E3,-3.1184917E3,-9.837371E2,7.198863E2,4.304898E3,1.9552979E3,-3.0795457E3,-1.1478519E3,1.3413222E1,-5.607436E2,6.033482E3,3.3061035E3,5.175256E2,2.6674622E3,-1.1299033E3,-4.705321E1,1.6291199E3,2.8789573E3,3.4689297E3,5.527771E3,1.577304E3,3.1541072E3,8.269448E3,4.277962E3,1.9926795E4,1.1039485E4],"split_indices":[4,1,1,4,1,4,2,4,0,0,1,2,0,0,0,4,4,1,4,4,0,0,4,1,0,1,2,2,0,2,2,1,4,1,0,0,0,1,1,0,1,0,2,2,0,0,2,0,0,0,0,0,0,0,0,0,0,0,0,0,0,0,0,0,0,0,0,0,0,0,0,0,0,0,0,0,0,0,0,0,0],"split_type":[0,0,0,0,0,0,0,0,0,0,0,0,0,0,0,0,0,0,0,0,0,0,0,0,0,0,0,0,0,0,0,0,0,0,0,0,0,0,0,0,0,0,0,0,0,0,0,0,0,0,0,0,0,0,0,0,0,0,0,0,0,0,0,0,0,0,0,0,0,0,0,0,0,0,0,0,0,0,0,0,0],"sum_hessian":[2.106E3,1.718E3,3.88E2,1.342E3,3.76E2,3.51E2,3.7E1,1.144E3,1.98E2,2.33E2,1.43E2,1.84E2,1.67E2,2.1E1,1.6E1,3.63E2,7.81E2,1.41E2,5.7E1,5.2E1,1.81E2,8.9E1,5.4E1,1.3E2,5.4E1,1.07E2,6E1,2.77E2,8.6E1,1.6E2,6.21E2,1.14E2,2.7E1,4E1,1.7E1,3.7E1,1.5E1,3E1,1.51E2,2E1,6.9E1,3E1,2.4E1,1.28E2,2E0,7.8E1,2.9E1,5.3E1,7E0,2.14E2,6.3E1,5.7E1,2.9E1,1.27E2,3.3E1,4.12E2,2.09E2,4.5E1,6.9E1,1.6E1,1.1E1,3.6E1,4E0,1.2E1,5E0,2.1E1,1.6E1,1.7E1,1.3E1,9.7E1,5.4E1,3.3E1,3.6E1,1E1,1.4E1,8.7E1,4.1E1,4.3E1,3.5E1,1.4E1,1.5E1],"tree_param":{"num_deleted":"0","num_feature":"5","num_nodes":"81","size_leaf_vector":"1"}},{"base_weights":[-2.2713258E2,-3.0227219E4,1.2848593E5,-4.8757562E4,3.2931062E4,1.0365528E5,3.151614E5,-5.5266805E4,-1.1569274E4,1.1606493E4,8.701638E4,6.938388E4,1.432103E5,3.6944497E5,1.19575E4,-3.189095E4,-6.592265E4,-2.5425807E4,4.850706E3,-2.3048463E4,2.4523588E4,7.0992195E4,6.3423496E3,4.552815E4,6.590889E3,3.8092761E3,1.5488498E5,9.880438E3,1.9638287E4,-4.690857E4,2.3263934E4,-5.2298254E4,-6.92601E4,-3.1263425E3,-1.6704824E4,-1.572343E3,4.726681E4,-2.7544988E4,-1.3341874E4,1.6121362E4,3.672539E4,8.1754016E4,4.247486E4,3.0610707E4,7.317141E4,1.3409255E5,9.592363E3,-2.659833E3,-1.1640016E3,-1.0116242E3,1.7145726E3,-2.8338489E3,-1.6082173E3,-3.7106902E3,-3.0036829E3,-1.0640109E3,1.2910713E3,-5.961879E2,1.2534545E1,2.4599185E3,6.504914E2,-1.7691022E3,-1.1292908E3,-7.147932E2,-6.3133076E1,1.5571925E3,3.9531121E0,6.5110126E2,3.4091782E3,3.3499277E3,4.8385103E3,6.448098E2,2.4789985E3,3.5946622E2,1.539454E3,3.2839336E3,8.183476E3,7.4643315E3,5.4486113E3],"categories":[],"categories_nodes":[],"categories_segments":[],"categories_sizes":[],"default_left":[0,0,0,0,0,0,0,0,0,0,0,0,0,0,0,0,0,0,0,0,0,0,0,0,0,0,0,0,0,0,0,0,0,0,0,0,0,0,0,0,0,0,0,0,0,0,0,0,0,0,0,0,0,0,0,0,0,0,0,0,0,0,0,0,0,0,0,0,0,0,0,0,0,0,0,0,0,0,0],"id":1,"left_children":[1,3,5,7,9,11,13,15,17,19,21,23,25,27,-1,29,31,33,35,37,39,41,-1,43,-1,-1,45,-1,-1,47,49,51,53,-1,55,57,59,61,63,65,67,69,71,73,75,77,-1,-1,-1,-1,-1,-1,-1,-1,-1,-1,-1,-1,-1,-1,-1,-1,-1,-1,-1,-1,-1,-1,-1,-1,-1,-1,-1,-1,-1,-1,-1,-1,-1],"loss_changes":[8.089662E12,1.9900211E12,1.8028996E12,3.174375E11,4.4418168E11,4.65881E11,1.014513E11,2.7638E11,4.4945555E10,1.2500953E11,6.0564374E10,2.769858E11,1.1496404E11,2.2569812E10,0E0,2.9265114E11,3.1253856E10,3.3576165E10,2.4866423E10,2.949591E9,2.0219953E10,2.1079392E10,0E0,5.507914E10,0E0,0E0,7.956437E10,0E0,0E0,3.991778E10,3.714778E10,1.1841962E10,2.3437246E10,0E0,1.7672024E10,1.5126678E9,1.5397069E8,1.1830026E9,2.8155853E8,2.939896E10,6.0256616E10,6.1460644E9,4.404437E9,1.630126E8,2.1798158E10,1.84649E10,0E0,0E0,0E0,0E0,0E0,0E0,0E0,0E0,0E0,0E0,0E0,0E0,0E0,0E0,0E0,0E0,0E0,0E0,0E0,0E0,0E0,0E0,0E0,0E0,0E0,0E0,0E0,0E0,0E0,0E0,0E0,0E0,0E0],"parents":[2147483647,0,0,1,1,2,2,3,3,4,4,5,5,6,6,7,7,8,8,9,9,10,10,11,11,12,12,13,13,15,15,16,16,17,17,18,18,19,19,20,20,21,21,23,23,26,26,29,29,30,30,31,31,32,32,34,34,35,35,36,36,37,37,38,38,39,39,40,40,41,41,42,42,43,43,44,44,45,45],"right_children":[2,4,6,8,10,12,14,16,18,20,22,24,26,28,-1,30,32,34,36,38,40,42,-1,44,-1,-1,46,-1,-1,48,50,52,54,-1,56,58,60,62,64,66,68,70,72,74,76,78,-1,-1,-1,-1,-1,-1,-1,-1,-1,-1,-1,-1,-1,-1,-1,-1,-1,-1,-1,-1,-1,-1,-1,-1,-1,-1,-1,-1,-1,-1,-1,-1,-1],"split_conditions":[1.1E1,4.8683E4,2.44125E5,9E0,1.13377E5,1.2E1,5E0,4E0,1E1,3E0,1.87947E5,5E0,2.325E4,1.2E1,1.19575E4,3E0,5E0,7.072E3,5E0,6.9828E4,5E0,1E1,6.3423496E3,3E0,6.590889E3,3.8092761E3,4E0,9.880438E3,1.9638287E4,5E0,8.271E3,5E0,5E0,-3.1263425E3,4.2607E4,1E0,4.6211E4,5E0,9.0008E4,1E1,9E0,5E0,5E0,1.297E3,1.51813E5,1.36412E5,9.592363E3,-2.659833E3,-1.1640016E3,-1.0116242E3,1.7145726E3,-2.8338489E3,-1.6082173E3,-3.7106902E3,-3.0036829E3,-1.0640109E3,1.2910713E3,-5.961879E2,1.2534545E1,2.4599185E3,6.504914E2,-1.7691022E3,-1.1292908E3,-7.147932E2,-6.3133076E1,1.5571925E3,3.9531121E0,6.5110126E2,3.4091782E3,3.3499277E3,4.8385103E3,6.448098E2,2.4789985E3,3.5946622E2,1.539454E3,3.2839336E3,8.183476E3,7.4643315E3,5.4486113E3],"split_indices":[4,1,1,4,1,4,2,4,4,4,1,2,1,4,0,4,4,1,2,1,2,4,0,2,0,0,2,0,0,2,1,2,2,0,1,2,1,2,1,4,4,2,2,1,1,1,0,0,0,0,0,0,0,0,0,0,0,0,0,0,0,0,0,0,0,0,0,0,0,0,0,0,0,0,0,0,0,0,0],"split_type":[0,0,0,0,0,0,0,0,0,0,0,0,0,0,0,0,0,0,0,0,0,0,0,0,0,0,0,0,0,0,0,0,0,0,0,0,0,0,0,0,0,0,0,0,0,0,0,0,0,0,0,0,0,0,0,0,0,0,0,0,0,0,0,0,0,0,0,0,0,0,0,0,0,0,0,0,0,0,0],"sum_hessian":[2.093E3,1.698E3,3.95E2,1.313E3,3.85E2,3.5E2,4.5E1,1.117E3,1.96E2,2.77E2,1.08E2,1.89E2,1.61E2,2.4E1,2.1E1,3.51E2,7.66E2,1.06E2,9E1,7.5E1,2.02E2,7.9E1,2.9E1,1.38E2,5.1E1,2.5E1,1.36E2,4E0,2E1,2.76E2,7.5E1,1.54E2,6.12E2,1.9E1,8.7E1,7.9E1,1.1E1,5E1,2.5E1,1.21E2,8.1E1,5.6E1,2.3E1,9.1E1,4.7E1,9E1,4.6E1,2.17E2,5.9E1,1.5E1,6E1,1.25E2,2.9E1,3.93E2,2.19E2,7.9E1,8E0,1.1E1,6.8E1,1E1,1E0,1.7E1,3.3E1,2.3E1,2E0,6.2E1,5.9E1,4.7E1,3.4E1,3.1E1,2.5E1,5E0,1.8E1,1E0,9E1,4.5E1,2E0,5.3E1,3.7E1],"tree_param":{"num_deleted":"0","num_feature":"5","num_nodes":"79","size_leaf_vector":"1"}},{"base_weights":[-5.9824005E2,-2.7190594E4,1.2246529E5,-4.0679914E4,1.9094084E4,7.539122E4,1.6569419E5,-1.064377E4,-6.0970363E4,2.4860999E3,5.904882E4,1.476224E3,1.09276984E5,1.3793586E5,9.013147E3,-3.8762316E4,4.3346684E4,-4.3525707E4,-6.5214168E4,-3.1268552E3,6.1229253E3,7.0192125E4,4.0650227E4,8.161728E4,1.3330922E5,7.1452983E3,3.0551824E3,-4.6922094E4,-2.1386967E4,2.6564277E4,2.7919717E3,-4.742321E4,-1.5862424E3,-7.010242E4,-5.601943E4,-6.7915703E3,2.7125095E2,1.4861853E4,-2.179122E3,7.973267E4,2.8684055E3,4.7906453E4,1.5038069E3,4.314656E3,1.1138063E3,7.431104E3,5.030594E3,-2.3679524E3,-8.544162E2,-8.848294E2,-1.3228802E3,1.6255652E3,6.4811633E2,-1.8644475E3,-2.880774E3,-3.70252E3,-3.0691267E3,-3.0302139E3,-2.2305005E3,8.231641E-1,-7.6881647E2,-3.974526E2,3.03292E2,7.581307E1,1.0941874E3,2.5591199E2,-2.8026712E2,2.4732605E3,4.199762E3,2.8274744E3,1.5882684E3],"categories":[],"categories_nodes":[],"categories_segments":[],"categories_sizes":[],"default_left":[0,0,0,0,0,0,0,0,0,0,0,0,0,0,0,0,0,0,0,0,0,0,0,0,0,0,0,0,0,0,0,0,0,0,0,0,0,0,0,0,0,0,0,0,0,0,0,0,0,0,0,0,0,0,0,0,0,0,0,0,0,0,0,0,0,0,0,0,0,0,0],"id":2,"left_children":[1,3,5,7,9,11,13,15,17,19,21,-1,23,25,-1,27,29,31,33,35,37,39,41,43,45,-1,-1,47,49,51,-1,53,-1,55,57,59,61,63,65,67,-1,69,-1,-1,-1,-1,-1,-1,-1,-1,-1,-1,-1,-1,-1,-1,-1,-1,-1,-1,-1,-1,-1,-1,-1,-1,-1,-1,-1,-1,-1],"loss_changes":[6.777506E12,1.0640425E12,7.36373E11,8.032116E11,2.5532675E11,2.7342655E11,5.237637E10,8.1084514E11,5.542458E10,5.5919867E9,2.031403E10,0E0,5.6921555E10,1.7998414E10,0E0,4.876088E10,3.6884185E10,5.7165414E9,2.4433918E10,1.346776E9,1.2075851E10,3.867902E9,2.0119224E9,1.1951178E10,1.1583422E10,0E0,0E0,2.2932357E9,1.665024E9,6.04987E9,0E0,9.833349E9,0E0,9.500361E9,9.013953E9,3.0394097E9,2.7633142E9,7.5574354E9,2.1788933E9,6.188073E8,0E0,1.6913859E9,0E0,0E0,0E0,0E0,0E0,0E0,0E0,0E0,0E0,0E0,0E0,0E0,0E0,0E0,0E0,0E0,0E0,0E0,0E0,0E0,0E0,0E0,0E0,0E0,0E0,0E0,0E0,0E0,0E0],"parents":[2147483647,0,0,1,1,2,2,3,3,4,4,5,5,6,6,7,7,8,8,9,9,10,10,12,12,13,13,15,15,16,16,17,17,18,18,19,19,20,20,21,21,22,22,23,23,24,24,27,27,28,28,29,29,31,31,33,33,34,34,35,35,36,36,37,37,38,38,39,39,41,41],"right_children":[2,4,6,8,10,12,14,16,18,20,22,-1,24,26,-1,28,30,32,34,36,38,40,42,44,46,-1,-1,48,50,52,-1,54,-1,56,58,60,62,64,66,68,-1,70,-1,-1,-1,-1,-1,-1,-1,-1,-1,-1,-1,-1,-1,-1,-1,-1,-1,-1,-1,-1,-1,-1,-1,-1,-1,-1,-1,-1,-1],"split_conditions":[1.1E1,9E0,1.2E1,4E0,5E0,3E0,2E0,3E0,5E0,2E0,6E0,1.476224E3,5E0,1.9E1,9.013147E3,5E0,3E0,5E0,5E0,1E1,1E1,1E1,1.5E1,1.9E1,6E0,7.1452983E3,3.0551824E3,1.9E1,6E0,2E0,2.7919717E3,2E0,-1.5862424E3,8E0,8E0,1E0,1E0,3E0,3E0,1.1E1,2.8684055E3,1E1,1.5038069E3,4.314656E3,1.1138063E3,7.431104E3,5.030594E3,-2.3679524E3,-8.544162E2,-8.848294E2,-1.3228802E3,1.6255652E3,6.4811633E2,-1.8644475E3,-2.880774E3,-3.70252E3,-3.0691267E3,-3.0302139E3,-2.2305005E3,8.231641E-1,-7.6881647E2,-3.974526E2,3.03292E2,7.581307E1,1.0941874E3,2.5591199E2,-2.8026712E2,2.4732605E3,4.199762E3,2.8274744E3,1.5882684E3],"split_indices":[4,4,4,4,2,2,2,4,4,2,2,0,2,0,0,2,2,2,2,4,4,4,0,0,2,0,0,0,2,2,0,2,0,4,4,2,2,2,2,0,0,4,0,0,0,0,0,0,0,0,0,0,0,0,0,0,0,0,0,0,0,0,0,0,0,0,0,0,0,0,0],"split_type":[0,0,0,0,0,0,0,0,0,0,0,0,0,0,0,0,0,0,0,0,0,0,0,0,0,0,0,0,0,0,0,0,0,0,0,0,0,0,0,0,0,0,0,0,0,0,0,0,0,0,0,0,0,0,0,0,0,0,0,0,0,0,0,0,0,0,0,0,0,0,0],"sum_hessian":[2.069E3,1.702E3,3.67E2,1.318E3,3.84E2,1.77E2,1.9E2,5.32E2,7.86E2,2.72E2,1.12E2,7.6E1,1.01E2,6.9E1,1.21E2,3.5E2,1.82E2,1.56E2,6.3E2,1.07E2,1.65E2,6.8E1,4.4E1,4.9E1,5.2E1,6.4E1,5E0,2.37E2,1.13E2,7.9E1,1.03E2,1.15E2,4.1E1,4.07E2,2.23E2,5.1E1,5.6E1,8E1,8.5E1,3.6E1,3.2E1,2.4E1,2E1,4.5E1,4E0,3.3E1,1.9E1,2.33E2,4E0,6.8E1,4.5E1,5.4E1,2.5E1,6E1,5.5E1,2.75E2,1.32E2,1.56E2,6.7E1,2.9E1,2.2E1,2.3E1,3.3E1,2.8E1,5.2E1,2.7E1,5.8E1,6E0,3E1,1.4E1,1E1],"tree_param":{"num_deleted":"0","num_feature":"5","num_nodes":"71","size_leaf_vector":"1"}},{"base_weights":[-6.0196375E2,-2.5296291E4,1.10174914E5,-4.1842027E4,3.6093684E4,9.031783E4,2.9121488E5,-4.8838406E4,-3.2305596E3,1.3149024E4,8.114358E4,7.299105E4,1.4225581E5,3.4063378E5,1.0869042E4,-2.7407268E4,-5.8989574E4,1.0905836E4,-3.5368344E4,8.3215336E4,-6.421748E3,6.0035004E4,1.0449253E5,4.52139E4,1.0214032E5,5.8452227E3,9.009866E3,8.619206E3,1.7954926E4,-4.1054332E4,1.8397977E4,-4.541612E4,-6.237008E4,-1.408106E4,3.174785E4,-5.162761E4,-7.288419E3,9.873317E4,2.1816697E3,-1.5088987E4,9.498453E3,9.139038E4,3.5801477E4,6.057889E3,8.606933E4,4.122017E4,8.434932E3,1.3404175E5,7.245732E4,-2.3665183E3,-1.0874907E3,1.8002631E3,-7.2850946E2,-2.4750386E3,-1.4929148E3,-3.3299634E3,-2.6838123E3,4.866476E2,-1.6019238E3,3.1515464E3,7.906735E2,-2.967281E3,-6.1863055E2,-8.2759094E2,-1.7459935E2,1.9708519E3,5.1345605E3,-9.26758E2,4.8809528E2,1.5606421E3,1.4443314E2,5.073371E3,1.792526E3,9.853263E2,2.1855024E3,3.211546E3,4.9136562E3,2.7645935E3,1.3271149E3,4.787484E3,1.7232299E4,3.1697559E3,4.5744976E3],"categories":[],"categories_nodes":[],"categories_segments":[],"categories_sizes":[],"default_left":[0,0,0,0,0,0,0,0,0,0,0,0,0,0,0,0,0,0,0,0,0,0,0,0,0,0,0,0,0,0,0,0,0,0,0,0,0,0,0,0,0,0,0,0,0,0,0,0,0,0,0,0,0,0,0,0,0,0,0,0,0,0,0,0,0,0,0,0,0,0,0,0,0,0,0,0,0,0,0,0,0,0,0],"id":3,"left_children":[1,3,5,7,9,11,13,15,17,19,21,23,25,27,-1,29,31,33,35,37,39,41,43,45,47,-1,-1,-1,-1,49,51,53,55,57,59,61,63,65,-1,67,69,71,73,-1,75,77,-1,79,81,-1,-1,-1,-1,-1,-1,-1,-1,-1,-1,-1,-1,-1,-1,-1,-1,-1,-1,-1,-1,-1,-1,-1,-1,-1,-1,-1,-1,-1,-1,-1,-1,-1,-1],"loss_changes":[5.8377377E12,1.7739804E12,1.3721241E12,3.7128556E11,3.824188E11,3.063876E11,6.460696E10,2.5161263E11,9.669996E10,3.392336E11,5.5334666E10,2.1075775E11,6.2616502E10,3.3373553E9,0E0,2.3579561E11,3.337067E10,7.752207E10,2.9300056E10,2.8860154E10,2.6912256E10,4.839799E10,7.379616E9,6.110285E10,1.1244169E11,0E0,0E0,0E0,0E0,3.4105754E10,5.102635E10,8.75325E9,1.9552272E10,2.9391225E10,3.9379853E10,1.1687535E10,8.2139776E8,4.87365E9,0E0,1.097164E10,9.813238E9,1.2592972E10,4.2301522E9,0E0,1.9496796E9,2.6415694E10,0E0,4.58933E11,6.10091E9,0E0,0E0,0E0,0E0,0E0,0E0,0E0,0E0,0E0,0E0,0E0,0E0,0E0,0E0,0E0,0E0,0E0,0E0,0E0,0E0,0E0,0E0,0E0,0E0,0E0,0E0,0E0,0E0,0E0,0E0,0E0,0E0,0E0,0E0],"parents":[2147483647,0,0,1,1,2,2,3,3,4,4,5,5,6,6,7,7,8,8,9,9,10,10,11,11,12,12,13,13,15,15,16,16,17,17,18,18,19,19,20,20,21,21,22,22,23,23,24,24,29,29,30,30,31,31,32,32,33,33,34,34,35,35,36,36,37,37,39,39,40,40,41,41,42,42,44,44,45,45,47,47,48,48],"right_children":[2,4,6,8,10,12,14,16,18,20,22,24,26,28,-1,30,32,34,36,38,40,42,44,46,48,-1,-1,-1,-1,50,52,54,56,58,60,62,64,66,-1,68,70,72,74,-1,76,78,-1,80,82,-1,-1,-1,-1,-1,-1,-1,-1,-1,-1,-1,-1,-1,-1,-1,-1,-1,-1,-1,-1,-1,-1,-1,-1,-1,-1,-1,-1,-1,-1,-1,-1,-1,-1],"split_conditions":[1.1E1,5.5088E4,2.44125E5,9E0,1.11406E5,1E0,1E0,4E0,1.4E1,1.5E1,1.58676E5,1.2E1,1.2E1,1.2E1,1.0869042E4,3E0,5E0,1.2973E4,1E1,1E1,9E0,1.7E1,4E0,1.54538E5,1.4E1,5.8452227E3,9.009866E3,8.619206E3,1.7954926E4,1E0,1.3E1,1E0,1E0,1.1E1,1.2E1,4.2607E4,3.2199E4,5.6464E4,2.1816697E3,9.0008E4,1.6E1,1E1,1.24584E5,6.057889E3,1E0,1.5E1,8.434932E3,5.6464E4,1.76974E5,-2.3665183E3,-1.0874907E3,1.8002631E3,-7.2850946E2,-2.4750386E3,-1.4929148E3,-3.3299634E3,-2.6838123E3,4.866476E2,-1.6019238E3,3.1515464E3,7.906735E2,-2.967281E3,-6.1863055E2,-8.2759094E2,-1.7459935E2,1.9708519E3,5.1345605E3,-9.26758E2,4.8809528E2,1.5606421E3,1.4443314E2,5.073371E3,1.792526E3,9.853263E2,2.1855024E3,3.211546E3,4.9136562E3,2.7645935E3,1.3271149E3,4.787484E3,1.7232299E4,3.1697559E3,4.5744976E3],"split_indices":[4,1,1,4,1,3,3,4,0,0,1,4,4,4,0,4,4,1,4,4,4,0,4,1,0,0,0,0,0,3,0,3,3,0,0,1,1,1,0,1,0,4,1,0,3,0,0,1,1,0,0,0,0,0,0,0,0,0,0,0,0,0,0,0,0,0,0,0,0,0,0,0,0,0,0,0,0,0,0,0,0,0,0],"split_type":[0,0,0,0,0,0,0,0,0,0,0,0,0,0,0,0,0,0,0,0,0,0,0,0,0,0,0,0,0,0,0,0,0,0,0,0,0,0,0,0,0,0,0,0,0,0,0,0,0,0,0,0,0,0,0,0,0,0,0,0,0,0,0,0,0,0,0,0,0,0,0,0,0,0,0,0,0,0,0,0,0,0,0],"sum_hessian":[2.132E3,1.744E3,3.88E2,1.374E3,3.7E2,3.51E2,3.7E1,1.163E3,2.11E2,2.46E2,1.24E2,2.65E2,8.6E1,2E1,1.7E1,3.75E2,7.88E2,1.47E2,6.4E1,5.3E1,1.93E2,6.7E1,5.7E1,1.37E2,1.28E2,5.4E1,3.2E1,3E0,1.7E1,2.89E2,8.6E1,1.6E2,6.28E2,6.7E1,8E1,4E1,2.4E1,3.7E1,1.6E1,1.25E2,6.8E1,2.8E1,3.9E1,2.7E1,3E1,1.34E2,3E0,6E1,6.8E1,2.17E2,7.2E1,5.6E1,3E1,1.25E2,3.5E1,4.18E2,2.1E2,2.9E1,3.8E1,2.6E1,5.4E1,3.3E1,7E0,6E0,1.8E1,3E0,3.4E1,1.1E2,1.5E1,1.5E1,5.3E1,2.3E1,5E0,1.4E1,2.5E1,1.3E1,1.7E1,6.7E1,6.7E1,5.2E1,8E0,4.9E1,1.9E1],"tree_param":{"num_deleted":"0","num_feature":"5","num_nodes":"83","size_leaf_vector":"1"}},{"base_weights":[-1.0679363E2,-2.4368787E4,1.0763424E5,-3.6063082E4,1.7056213E4,6.341234E4,1.501874E5,-7.5344414E3,-5.5096426E4,3.6485732E3,5.1679273E4,3.063984E4,1.04306664E5,6.1262026E3,8.309464E3,-3.560507E4,4.1378047E4,-3.9551035E4,-5.922038E4,-4.2475375E2,1.0454758E4,6.350136E4,3.6071305E4,1.2848396E3,5.110441E4,7.635636E4,1.1669705E5,-4.3430387E4,-1.9077582E4,2.3357889E4,5.3759727E4,-4.3569703E4,-1.3968041E3,-6.294797E4,-5.0291883E4,8.332282E3,-1.4954565E3,2.5075795E4,-4.944648E3,7.227226E4,2.5967935E3,4.3836758E4,2.3999693E4,8.7128955E2,7.7075484E4,4.2084307E3,4.5328145E4,6.3853726E3,4.4971226E3,-2.1893699E3,-9.2322784E2,-7.433999E2,-1.2622697E3,1.5221405E3,1.9299622E2,3.0890012E3,2.3373843E3,-1.7023964E3,-2.6275515E3,-3.3478933E3,-2.7669646E3,-2.7449175E3,-2.0110585E3,-3.2126858E1,5.02761E2,-2.6948502E2,-1.5736068E1,2.4900864E3,1.0731321E3,-3.6988412E2,-1.2450924E2,8.9180743E2,3.770572E3,2.6358828E3,1.476718E3,8.6254877E2,1.6404993E3,4.1259717E3,5.658996E2,1.1390139E3,3.7657246E3],"categories":[],"categories_nodes":[],"categories_segments":[],"categories_sizes":[],"default_left":[0,0,0,0,0,0,0,0,0,0,0,0,0,0,0,0,0,0,0,0,0,0,0,0,0,0,0,0,0,0,0,0,0,0,0,0,0,0,0,0,0,0,0,0,0,0,0,0,0,0,0,0,0,0,0,0,0,0,0,0,0,0,0,0,0,0,0,0,0,0,0,0,0,0,0,0,0,0,0,0,0],"id":4,"left_children":[1,3,5,7,9,11,13,15,17,19,21,23,25,-1,-1,27,29,31,33,35,37,39,41,-1,43,45,47,49,51,53,55,57,-1,59,61,63,65,67,69,71,-1,73,75,-1,77,-1,79,-1,-1,-1,-1,-1,-1,-1,-1,-1,-1,-1,-1,-1,-1,-1,-1,-1,-1,-1,-1,-1,-1,-1,-1,-1,-1,-1,-1,-1,-1,-1,-1,-1,-1],"loss_changes":[5.518189E12,8.3529846E11,7.2060764E11,7.293707E11,1.7621254E11,2.5412416E11,6.684305E10,7.4152254E11,4.932947E10,7.628491E9,1.7268408E10,9.611772E9,2.0526268E10,0E0,0E0,4.3532616E10,4.26989E10,6.8112056E9,1.7967874E10,1.6345403E9,2.3314985E10,2.231419E9,3.4475213E9,0E0,1.6150295E10,3.2144097E9,5.304615E9,1.2593398E9,2.53261E9,1.1210097E10,3.6356096E9,8.986034E9,0E0,9.841148E9,6.6988605E9,3.002588E8,7.110047E8,3.6660695E9,2.8864346E8,3.9523779E9,0E0,1.999532E9,6.8261786E8,0E0,3.0038303E9,0E0,3.6933407E9,0E0,0E0,0E0,0E0,0E0,0E0,0E0,0E0,0E0,0E0,0E0,0E0,0E0,0E0,0E0,0E0,0E0,0E0,0E0,0E0,0E0,0E0,0E0,0E0,0E0,0E0,0E0,0E0,0E0,0E0,0E0,0E0,0E0,0E0],"parents":[2147483647,0,0,1,1,2,2,3,3,4,4,5,5,6,6,7,7,8,8,9,9,10,10,11,11,12,12,15,15,16,16,17,17,18,18,19,19,20,20,21,21,22,22,24,24,25,25,26,26,27,27,28,28,29,29,30,30,31,31,33,33,34,34,35,35,36,36,37,37,38,38,39,39,41,41,42,42,44,44,46,46],"right_children":[2,4,6,8,10,12,14,16,18,20,22,24,26,-1,-1,28,30,32,34,36,38,40,42,-1,44,46,48,50,52,54,56,58,-1,60,62,64,66,68,70,72,-1,74,76,-1,78,-1,80,-1,-1,-1,-1,-1,-1,-1,-1,-1,-1,-1,-1,-1,-1,-1,-1,-1,-1,-1,-1,-1,-1,-1,-1,-1,-1,-1,-1,-1,-1,-1,-1,-1,-1],"split_conditions":[1.1E1,9E0,1.2E1,4E0,5E0,4E0,2E0,3E0,5E0,3E0,6E0,3E0,5E0,6.1262026E3,8.309464E3,5E0,3E0,5E0,8E0,1.1E1,1E1,1E1,1.5E1,1.2848396E3,1.5E1,1.7E1,6E0,1.9E1,6E0,2E0,1.4E1,2E0,-1.3968041E3,5E0,5E0,1E0,1.3E1,1.1E1,4E0,1E1,2.5967935E3,1E1,1.7E1,8.7128955E2,1.9E1,4.2084307E3,1.9E1,6.3853726E3,4.4971226E3,-2.1893699E3,-9.2322784E2,-7.433999E2,-1.2622697E3,1.5221405E3,1.9299622E2,3.0890012E3,2.3373843E3,-1.7023964E3,-2.6275515E3,-3.3478933E3,-2.7669646E3,-2.7449175E3,-2.0110585E3,-3.2126858E1,5.02761E2,-2.6948502E2,-1.5736068E1,2.4900864E3,1.0731321E3,-3.6988412E2,-1.2450924E2,8.9180743E2,3.770572E3,2.6358828E3,1.476718E3,8.6254877E2,1.6404993E3,4.1259717E3,5.658996E2,1.1390139E3,3.7657246E3],"split_indices":[4,4,4,4,2,2,2,4,4,2,2,2,2,0,0,2,2,2,4,0,4,4,0,0,0,0,2,0,2,2,0,2,0,2,2,2,0,0,2,0,0,4,0,0,0,0,0,0,0,0,0,0,0,0,0,0,0,0,0,0,0,0,0,0,0,0,0,0,0,0,0,0,0,0,0,0,0,0,0,0,0],"split_type":[0,0,0,0,0,0,0,0,0,0,0,0,0,0,0,0,0,0,0,0,0,0,0,0,0,0,0,0,0,0,0,0,0,0,0,0,0,0,0,0,0,0,0,0,0,0,0,0,0,0,0,0,0,0,0,0,0,0,0,0,0,0,0,0,0,0,0,0,0,0,0,0,0,0,0,0,0,0,0,0,0],"sum_hessian":[2.109E3,1.722E3,3.87E2,1.343E3,3.79E2,1.91E2,1.96E2,5.38E2,8.05E2,2.74E2,1.05E2,1.07E2,8.4E1,7.5E1,1.21E2,3.42E2,1.96E2,1.71E2,6.34E2,1.72E2,1.02E2,5.8E1,4.7E1,8.8E1,1.9E1,2.8E1,5.6E1,2.31E2,1.11E2,8.1E1,1.15E2,1.25E2,4.6E1,4.43E2,1.91E2,1.8E1,1.54E2,5.2E1,5E1,3E1,2.8E1,2.7E1,2E1,9E0,1E1,2.1E1,7E0,3.7E1,1.9E1,2.27E2,4E0,6.8E1,4.3E1,5.9E1,2.2E1,5E1,6.5E1,6.3E1,6.2E1,2.85E2,1.58E2,1.28E2,6.3E1,3E0,1.5E1,3.5E1,1.19E2,5E0,4.7E1,2.4E1,2.6E1,2E0,2.8E1,1.5E1,1.2E1,1.3E1,7E0,9E0,1E0,5E0,2E0],"tree_param":{"num_deleted":"0","num_feature":"5","num_nodes":"81","size_leaf_vector":"1"}},{"base_weights":[6.1206976E2,-2.2832697E4,1.0629415E5,-3.8228598E4,3.5675254E4,8.5866484E4,2.6724347E5,-4.3962152E4,-5.948753E3,1.7527611E4,8.1314664E4,5.8570527E4,1.1546833E5,3.208762E5,2.014633E5,-2.3279197E4,-5.3688984E4,-3.90289E4,-1.6483649E3,-1.5115525E4,2.6518494E4,6.810076E4,5.4252437E3,3.8297945E4,1.124008E5,2.7196045E3,1.2555002E5,8.145764E3,1.6862146E4,7.4307563E3,1.1655942E4,-3.6347008E4,1.7455646E4,-4.2732293E4,-5.6534582E4,-2.540636E3,-9.109658E3,-1.0814014E4,8.039005E3,-1.7978902E4,-9.350742E3,3.506388E4,1.3003782E4,7.451896E4,2.1476262E3,1.2518079E3,6.0521496E4,6.032692E3,4.2825166E3,1.0824121E5,8.0427344E3,-2.1216182E3,-9.2110596E2,-1.2055975E3,1.4668544E3,-2.297028E3,-1.3221459E3,-3.0215862E3,-2.4463943E3,-5.9779315E2,-1.6372441E2,-1.1834243E3,7.427353E1,6.1271454E2,-5.515361E2,-2.0552403E2,-9.1249774E2,-5.1311615E2,-2.302422E1,1.0906077E3,3.2414678E3,5.301486E1,1.9114033E3,3.191987E3,4.4060703E3,1.0263688E3,3.3349219E3,1.0153912E4,5.1527046E3],"categories":[],"categories_nodes":[],"categories_segments":[],"categories_sizes":[],"default_left":[0,0,0,0,0,0,0,0,0,0,0,0,0,0,0,0,0,0,0,0,0,0,0,0,0,0,0,0,0,0,0,0,0,0,0,0,0,0,0,0,0,0,0,0,0,0,0,0,0,0,0,0,0,0,0,0,0,0,0,0,0,0,0,0,0,0,0,0,0,0,0,0,0,0,0,0,0,0,0],"id":5,"left_children":[1,3,5,7,9,11,13,15,17,19,21,23,25,27,29,31,33,35,37,39,41,43,-1,45,47,-1,49,-1,-1,-1,-1,51,53,55,57,-1,59,61,63,65,67,69,71,73,-1,-1,75,-1,-1,77,-1,-1,-1,-1,-1,-1,-1,-1,-1,-1,-1,-1,-1,-1,-1,-1,-1,-1,-1,-1,-1,-1,-1,-1,-1,-1,-1,-1,-1],"loss_changes":[5.2675215E12,1.5687255E12,1.2461505E12,2.5477644E11,2.9922866E11,2.7119242E11,8.705802E10,2.3412998E11,2.9667473E10,7.700191E10,2.9617553E10,1.9321671E11,9.415426E10,1.9343606E9,2.1596733E9,2.0078504E11,2.2370845E10,7.998628E9,1.6602066E10,7.7276774E8,2.321916E10,8.4204913E9,0E0,3.7683085E10,4.8378675E8,0E0,6.81404E10,0E0,0E0,0E0,0E0,3.030591E10,4.614461E10,7.5649843E9,1.5659958E10,0E0,9.371533E7,1.5213084E10,7.4501473E9,6.4070656E7,1.6546227E8,4.789143E10,2.4362E10,2.5091113E9,0E0,0E0,1.0735878E10,0E0,0E0,2.6789282E10,0E0,0E0,0E0,0E0,0E0,0E0,0E0,0E0,0E0,0E0,0E0,0E0,0E0,0E0,0E0,0E0,0E0,0E0,0E0,0E0,0E0,0E0,0E0,0E0,0E0,0E0,0E0,0E0,0E0],"parents":[2147483647,0,0,1,1,2,2,3,3,4,4,5,5,6,6,7,7,8,8,9,9,10,10,11,11,12,12,13,13,14,14,15,15,16,16,17,17,18,18,19,19,20,20,21,21,23,23,24,24,26,26,31,31,32,32,33,33,34,34,36,36,37,37,38,38,39,39,40,40,41,41,42,42,43,43,46,46,49,49],"right_children":[2,4,6,8,10,12,14,16,18,20,22,24,26,28,30,32,34,36,38,40,42,44,-1,46,48,-1,50,-1,-1,-1,-1,52,54,56,58,-1,60,62,64,66,68,70,72,74,-1,-1,76,-1,-1,78,-1,-1,-1,-1,-1,-1,-1,-1,-1,-1,-1,-1,-1,-1,-1,-1,-1,-1,-1,-1,-1,-1,-1,-1,-1,-1,-1,-1,-1],"split_conditions":[1.1E1,5.767E4,2.44125E5,9E0,1.24584E5,1.2E1,5E0,4E0,5.3E3,3E0,1.82581E5,5E0,2.512E4,1.2E1,2.86753E5,3E0,5E0,1E1,3E0,7.7266E4,1E1,1E1,5.4252437E3,3E0,6E0,2.7196045E3,4E0,8.145764E3,1.6862146E4,7.4307563E3,1.1655942E4,5E0,8.271E3,5E0,5E0,-2.540636E3,3.875E3,1E1,6E0,1E0,9.0008E4,9E0,5E0,5E0,2.1476262E3,1.2518079E3,1.6272E4,6.032692E3,4.2825166E3,2.7859E4,8.0427344E3,-2.1216182E3,-9.2110596E2,-1.2055975E3,1.4668544E3,-2.297028E3,-1.3221459E3,-3.0215862E3,-2.4463943E3,-5.9779315E2,-1.6372441E2,-1.1834243E3,7.427353E1,6.1271454E2,-5.515361E2,-2.0552403E2,-9.1249774E2,-5.1311615E2,-2.302422E1,1.0906077E3,3.2414678E3,5.301486E1,1.9114033E3,3.191987E3,4.4060703E3,1.0263688E3,3.3349219E3,1.0153912E4,5.1527046E3],"split_indices":[4,1,1,4,1,4,2,4,1,4,1,2,1,4,1,4,4,4,2,1,4,4,0,2,2,0,2,0,0,0,0,2,1,2,2,0,1,4,2,2,1,4,2,2,0,0,1,0,0,1,0,0,0,0,0,0,0,0,0,0,0,0,0,0,0,0,0,0,0,0,0,0,0,0,0,0,0,0,0],"split_type":[0,0,0,0,0,0,0,0,0,0,0,0,0,0,0,0,0,0,0,0,0,0,0,0,0,0,0,0,0,0,0,0,0,0,0,0,0,0,0,0,0,0,0,0,0,0,0,0,0,0,0,0,0,0,0,0,0,0,0,0,0,0,0,0,0,0,0,0,0,0,0,0,0,0,0,0,0,0,0],"sum_hessian":[2.124E3,1.739E3,3.85E2,1.377E3,3.62E2,3.43E2,4.2E1,1.169E3,2.08E2,2.6E2,1.02E2,1.8E2,1.63E2,2.1E1,2.1E1,3.75E2,7.94E2,2.3E1,1.85E2,5.6E1,2.04E2,7.1E1,3.1E1,1.32E2,4.8E1,2.4E1,1.39E2,3E0,1.8E1,1E1,1.1E1,2.84E2,9.1E1,1.67E2,6.27E2,1.6E1,7E0,9.5E1,9E1,3.6E1,2E1,1.24E2,8E1,5.5E1,1.6E1,8.4E1,4.8E1,3.4E1,1.4E1,9.6E1,4.3E1,2.11E2,7.3E1,2E1,7.1E1,1.38E2,2.9E1,4.1E2,2.17E2,4E0,3E0,4.6E1,4.9E1,7.4E1,1.6E1,1E0,3.5E1,1.8E1,2E0,8.7E1,3.7E1,5.5E1,2.5E1,3.4E1,2.1E1,7E0,4.1E1,3E0,9.3E1],"tree_param":{"num_deleted":"0","num_feature":"5","num_nodes":"79","size_leaf_vector":"1"}},{"base_weights":[-2.6260426E1,-2.7656053E4,6.6615586E4,-9.422319E3,-4.639724E4,5.456614E4,2.444134E5,-2.9283547E4,4.1533797E4,-5.133278E4,-2.3634338E4,1.547237E5,3.8264086E4,1.961482E5,1.5076769E4,-1.795511E4,-4.476977E4,1.0877136E5,1.3834699E4,-2.9384197E3,-4.5731496E4,9.004131E3,-3.2822027E4,2.4592812E5,1.1870337E5,2.076959E4,9.680413E4,1.4378617E4,7.079347E3,-3.514893E4,6.4085723E3,-2.6143767E3,-3.4823094E4,1.59476E5,7.255064E4,3.092207E4,-1.6010115E4,-2.599459E4,-4.8567566E4,2.1852428E4,-1.5174965E4,-1.6738139E4,-3.9116332E4,1.8814712E5,1.5424216E4,1.0882655E5,1.1488606E4,5.384918E4,7.2707363E3,2.0537667E5,8.450792E4,-2.115595E3,-1.3255814E3,1.1559984E3,-9.872941E2,-1.3594872E3,-2.1943894E3,4.411097E3,1.3817372E4,5.6049736E3,2.9133816E3,9.2009436E2,3.0559087E3,-1.1688702E3,8.127006E2,-1.6007842E3,-5.708308E2,-2.084345E3,-2.5044343E3,5.5246326E2,1.2358431E3,-8.668979E2,-3.5276193E2,-6.239189E2,-1.3712578E3,-1.9977893E3,-9.770346E2,1.41469E4,5.2023994E3,7.955328E3,4.5177515E3,2.0076924E3,4.5830776E3,-6.556937E2,1.636691E3,1.2015737E4,4.2078174E3,3.4319531E3,4.9112046E3],"categories":[],"categories_nodes":[],"categories_segments":[],"categories_sizes":[],"default_left":[0,0,0,0,0,0,0,0,0,0,0,0,0,0,0,0,0,0,0,0,0,0,0,0,0,0,0,0,0,0,0,0,0,0,0,0,0,0,0,0,0,0,0,0,0,0,0,0,0,0,0,0,0,0,0,0,0,0,0,0,0,0,0,0,0,0,0,0,0,0,0,0,0,0,0,0,0,0,0,0,0,0,0,0,0,0,0,0,0],"id":6,"left_children":[1,3,5,7,9,11,13,15,17,19,21,23,25,27,-1,29,31,33,35,-1,37,39,41,43,45,47,49,-1,-1,51,53,-1,55,57,59,61,63,65,67,69,71,73,75,77,-1,79,-1,81,83,85,87,-1,-1,-1,-1,-1,-1,-1,-1,-1,-1,-1,-1,-1,-1,-1,-1,-1,-1,-1,-1,-1,-1,-1,-1,-1,-1,-1,-1,-1,-1,-1,-1,-1,-1,-1,-1,-1,-1],"loss_changes":[3.8888273E12,5.0975356E11,1.3127878E12,7.6835095E11,8.1474355E10,9.4272147E11,4.8377627E10,9.498352E10,3.9519057E11,2.2468362E10,4.0178524E10,2.3690989E11,5.110779E11,7.90007E10,0E0,1.33018075E11,1.5377859E10,1.02296584E11,7.801041E10,0E0,1.8272879E10,9.651415E9,9.873908E9,2.1479948E10,4.08151E10,1.724181E11,1.36172536E11,0E0,0E0,1.0385834E10,5.815075E10,0E0,5.864489E9,1.8380921E11,1.4933524E10,3.55472E10,1.3691129E10,3.672154E9,1.0937303E9,3.457956E8,7.086874E7,1.0690273E9,4.3526554E8,8.216645E10,0E0,3.8562497E10,0E0,5.4318957E10,1.4368845E11,2.6363232E10,1.6112288E10,0E0,0E0,0E0,0E0,0E0,0E0,0E0,0E0,0E0,0E0,0E0,0E0,0E0,0E0,0E0,0E0,0E0,0E0,0E0,0E0,0E0,0E0,0E0,0E0,0E0,0E0,0E0,0E0,0E0,0E0,0E0,0E0,0E0,0E0,0E0,0E0,0E0,0E0],"parents":[2147483647,0,0,1,1,2,2,3,3,4,4,5,5,6,6,7,7,8,8,9,9,10,10,11,11,12,12,13,13,15,15,16,16,17,17,18,18,20,20,21,21,22,22,23,23,24,24,25,25,26,26,29,29,30,30,32,32,33,33,34,34,35,35,36,36,37,37,38,38,39,39,40,40,41,41,42,42,43,43,45,45,47,47,48,48,49,49,50,50],"right_children":[2,4,6,8,10,12,14,16,18,20,22,24,26,28,-1,30,32,34,36,-1,38,40,42,44,46,48,50,-1,-1,52,54,-1,56,58,60,62,64,66,68,70,72,74,76,78,-1,80,-1,82,84,86,88,-1,-1,-1,-1,-1,-1,-1,-1,-1,-1,-1,-1,-1,-1,-1,-1,-1,-1,-1,-1,-1,-1,-1,-1,-1,-1,-1,-1,-1,-1,-1,-1,-1,-1,-1,-1,-1,-1],"split_conditions":[5.3324E4,1.4E1,2.44125E5,1.9591E4,3.9622E4,1.4E1,3.42682E5,1.2E1,1.2E1,1.9865E4,1.5E1,5E0,1.58676E5,1.6E1,1.5076769E4,7.909E3,1.1582E4,5E0,5E0,-2.9384197E3,1.5E1,5E0,1.6E1,6.9022E4,1.28897E5,1.6E1,1.6E1,1.4378617E4,7.079347E3,4.596E3,5E0,-2.6143767E3,1.3E1,2.5778E4,1E1,3.5927E4,3.8181E4,3.199E4,1.6E1,4.1891E4,4.6624E4,6E0,5.235E4,1.3E1,1.5424216E4,1.2E1,1.1488606E4,1.01617E5,1.00213E5,6E0,1.93597E5,-2.115595E3,-1.3255814E3,1.1559984E3,-9.872941E2,-1.3594872E3,-2.1943894E3,4.411097E3,1.3817372E4,5.6049736E3,2.9133816E3,9.2009436E2,3.0559087E3,-1.1688702E3,8.127006E2,-1.6007842E3,-5.708308E2,-2.084345E3,-2.5044343E3,5.5246326E2,1.2358431E3,-8.668979E2,-3.5276193E2,-6.239189E2,-1.3712578E3,-1.9977893E3,-9.770346E2,1.41469E4,5.2023994E3,7.955328E3,4.5177515E3,2.0076924E3,4.5830776E3,-6.556937E2,1.636691E3,1.2015737E4,4.2078174E3,3.4319531E3,4.9112046E3],"split_indices":[1,0,1,1,1,0,1,0,0,1,0,2,1,0,0,1,1,2,2,0,0,2,0,1,1,0,0,0,0,1,2,0,0,1,0,1,1,1,0,1,1,2,1,0,0,0,0,1,1,2,1,0,0,0,0,0,0,0,0,0,0,0,0,0,0,0,0,0,0,0,0,0,0,0,0,0,0,0,0,0,0,0,0,0,0,0,0,0,0],"split_type":[0,0,0,0,0,0,0,0,0,0,0,0,0,0,0,0,0,0,0,0,0,0,0,0,0,0,0,0,0,0,0,0,0,0,0,0,0,0,0,0,0,0,0,0,0,0,0,0,0,0,0,0,0,0,0,0,0,0,0,0,0,0,0,0,0,0,0,0,0,0,0,0,0,0,0,0,0,0,0,0,0,0,0,0,0,0,0,0,0],"sum_hessian":[2.11E3,1.492E3,6.18E2,7.57E2,7.35E2,5.8E2,3.8E1,5.45E2,2.12E2,6.03E2,1.32E2,8E1,5E2,2.3E1,1.5E1,3.16E2,2.29E2,6.1E1,1.51E2,2.55E2,3.48E2,2.9E1,1.03E2,2.1E1,5.9E1,3.86E2,1.14E2,7E0,1.6E1,1.85E2,1.31E2,1.28E2,1.01E2,2.4E1,3.7E1,9.6E1,5.5E1,4.5E1,3.03E2,1.9E1,1E1,3E1,7.3E1,1.3E1,8E0,5.6E1,3E0,1.11E2,2.75E2,1E1,1.04E2,9.9E1,8.6E1,8E1,5.1E1,5.7E1,4.4E1,1.6E1,8E0,8E0,2.9E1,6.9E1,2.7E1,4.5E1,1E1,3.1E1,1.4E1,6E1,2.43E2,5E0,1.4E1,7E0,3E0,2.3E1,7E0,6.9E1,4E0,5E0,8E0,1.3E1,4.3E1,8.3E1,2.8E1,1.53E2,1.22E2,7E0,3E0,5.1E1,5.3E1],"tree_param":{"num_deleted":"0","num_feature":"5","num_nodes":"89","size_leaf_vector":"1"}},{"base_weights":[-3.5929617E2,-2.0134922E4,9.389833E4,-3.2790996E4,4.082339E4,7.864965E4,2.5712916E5,-3.8503445E4,-3.6135256E3,2.4132332E4,7.866024E4,5.2358293E4,1.08270445E5,2.8891938E5,8.653167E3,-2.000476E4,-4.818029E4,-1.2054379E4,1.735748E4,-1.0753717E4,2.9750186E4,9.6708484E4,6.2917203E4,2.1306717E4,8.151133E4,2.5513E3,1.1764523E5,8.1494604E3,1.544812E4,-3.2810945E4,2.0640564E4,-3.6816164E4,-5.1202754E4,-2.3131715E4,3.1334387E3,2.414002E4,1.1189093E4,-6.052199E2,-5.526293E3,1.7274953E4,4.946377E4,3.0916736E3,5.1035E3,2.4496055E3,7.310327E4,3.4596066E2,2.1557934E4,8.8095404E2,8.8996914E4,2.6423925E5,1.0997439E5,-1.9026145E3,-8.5990625E2,-1.1410924E3,1.3948419E3,-2.0167323E3,-1.2871932E3,-2.7401125E3,-2.197463E3,-1.9786595E3,-8.960107E2,-6.9009384E1,1.9989589E3,1.853451E3,1.1961614E2,1.5477938E1,1.7367809E3,6.361504E1,-3.339639E2,1.492381E3,7.026448E1,1.78541E3,2.8891978E3,4.321731E3,2.0231703E3,1.01539307E3,1.3839281E3,6.940612E3,4.2011987E3,1.4379226E4,3.687824E3,2.6739355E3,6.0184126E3],"categories":[],"categories_nodes":[],"categories_segments":[],"categories_sizes":[],"default_left":[0,0,0,0,0,0,0,0,0,0,0,0,0,0,0,0,0,0,0,0,0,0,0,0,0,0,0,0,0,0,0,0,0,0,0,0,0,0,0,0,0,0,0,0,0,0,0,0,0,0,0,0,0,0,0,0,0,0,0,0,0,0,0,0,0,0,0,0,0,0,0,0,0,0,0,0,0,0,0,0,0,0,0],"id":7,"left_children":[1,3,5,7,9,11,13,15,17,19,21,23,25,27,-1,29,31,33,35,37,39,41,43,45,47,-1,49,-1,-1,51,53,55,57,59,61,63,65,-1,67,69,71,-1,-1,-1,73,-1,75,-1,77,79,81,-1,-1,-1,-1,-1,-1,-1,-1,-1,-1,-1,-1,-1,-1,-1,-1,-1,-1,-1,-1,-1,-1,-1,-1,-1,-1,-1,-1,-1,-1,-1,-1],"loss_changes":[3.955442E12,1.3545372E12,8.957489E11,2.4203939E11,1.8882593E11,2.5755556E11,3.2845201E10,2.16532E11,4.2515382E10,4.1672696E10,2.005572E10,1.621131E11,7.878843E10,2.64713E9,0E0,2.187716E11,2.5490096E10,2.8841615E10,2.6166702E9,1.4492493E8,4.3905057E10,1.3549896E9,3.794305E9,1.7251123E8,4.2911138E10,0E0,1.2274788E11,0E0,0E0,2.545002E10,3.2489546E10,5.6233984E9,1.3961789E10,7.7736387E9,1.2195656E10,8.908952E9,9.723906E9,0E0,7.120747E7,2.2504268E10,5.9480474E9,0E0,0E0,0E0,8.686289E9,0E0,1.0356736E8,0E0,8.897888E9,5.469995E9,6.989991E10,0E0,0E0,0E0,0E0,0E0,0E0,0E0,0E0,0E0,0E0,0E0,0E0,0E0,0E0,0E0,0E0,0E0,0E0,0E0,0E0,0E0,0E0,0E0,0E0,0E0,0E0,0E0,0E0,0E0,0E0,0E0,0E0],"parents":[2147483647,0,0,1,1,2,2,3,3,4,4,5,5,6,6,7,7,8,8,9,9,10,10,11,11,12,12,13,13,15,15,16,16,17,17,18,18,19,19,20,20,21,21,22,22,23,23,24,24,26,26,29,29,30,30,31,31,32,32,33,33,34,34,35,35,36,36,38,38,39,39,40,40,44,44,46,46,48,48,49,49,50,50],"right_children":[2,4,6,8,10,12,14,16,18,20,22,24,26,28,-1,30,32,34,36,38,40,42,44,46,48,-1,50,-1,-1,52,54,56,58,60,62,64,66,-1,68,70,72,-1,-1,-1,74,-1,76,-1,78,80,82,-1,-1,-1,-1,-1,-1,-1,-1,-1,-1,-1,-1,-1,-1,-1,-1,-1,-1,-1,-1,-1,-1,-1,-1,-1,-1,-1,-1,-1,-1,-1,-1],"split_conditions":[1.1E1,6.7417E4,2.60175E5,9E0,1.30827E5,1.2E1,5E0,4E0,3.6179E4,3E0,4E0,3E0,2.512E4,1.2E1,8.653167E3,3E0,5E0,1E1,1E1,8.3469E4,5E0,1.51813E5,5E0,3.246E3,1.6272E4,2.5513E3,2.7859E4,8.1494604E3,1.544812E4,5E0,8.271E3,5E0,5E0,7.072E3,5E0,5E0,5E0,-6.052199E2,8.5866E4,1E1,5E0,3.0916736E3,5.1035E3,2.4496055E3,1E1,3.4596066E2,1.28897E5,8.8095404E2,2.1486E4,5E0,4.9452E4,-1.9026145E3,-8.5990625E2,-1.1410924E3,1.3948419E3,-2.0167323E3,-1.2871932E3,-2.7401125E3,-2.197463E3,-1.9786595E3,-8.960107E2,-6.9009384E1,1.9989589E3,1.853451E3,1.1961614E2,1.5477938E1,1.7367809E3,6.361504E1,-3.339639E2,1.492381E3,7.026448E1,1.78541E3,2.8891978E3,4.321731E3,2.0231703E3,1.01539307E3,1.3839281E3,6.940612E3,4.2011987E3,1.4379226E4,3.687824E3,2.6739355E3,6.0184126E3],"split_indices":[4,1,1,4,1,4,2,4,1,4,4,2,1,4,0,4,4,4,4,1,2,1,2,1,1,0,1,0,0,2,1,2,2,1,2,2,2,0,1,4,4,0,0,0,4,0,1,0,1,2,1,0,0,0,0,0,0,0,0,0,0,0,0,0,0,0,0,0,0,0,0,0,0,0,0,0,0,0,0,0,0,0,0],"split_type":[0,0,0,0,0,0,0,0,0,0,0,0,0,0,0,0,0,0,0,0,0,0,0,0,0,0,0,0,0,0,0,0,0,0,0,0,0,0,0,0,0,0,0,0,0,0,0,0,0,0,0,0,0,0,0,0,0,0,0,0,0,0,0,0,0,0,0,0,0,0,0,0,0,0,0,0,0,0,0,0,0,0,0],"sum_hessian":[2.12E3,1.753E3,3.67E2,1.452E3,3.01E2,3.37E2,3E1,1.214E3,2.38E2,2.1E2,9.1E1,1.8E2,1.57E2,2E1,1E1,4.18E2,7.96E2,1.7E2,6.8E1,2.9E1,1.81E2,4E1,5.1E1,8.8E1,9.2E1,2.3E1,1.34E2,4E0,1.6E1,3.18E2,1E2,1.7E2,6.26E2,9.8E1,7.2E1,3.1E1,3.7E1,2.2E1,7E0,1.12E2,6.9E1,7E0,3.3E1,2.4E1,2.7E1,2E0,8.6E1,1E1,8.2E1,5E0,1.29E2,2.37E2,8.1E1,1.4E1,8.6E1,1.27E2,4.3E1,4.14E2,2.12E2,2.2E1,7.6E1,6.5E1,7E0,1.9E1,1.2E1,2.6E1,1.1E1,1E0,6E0,6.2E1,5E1,2.8E1,4.1E1,1.8E1,9E0,7.5E1,1.1E1,5E0,7.7E1,4E0,1E0,2.1E1,1.08E2],"tree_param":{"num_deleted":"0","num_feature":"5","num_nodes":"83","size_leaf_vector":"1"}},{"base_weights":[-6.1027763E1,-1.9110438E4,8.9281375E4,-3.013919E4,4.05232E4,7.2119305E4,2.3777744E5,-3.626629E4,-1.1838272E2,2.7210955E4,7.4496734E4,4.953184E4,9.696654E4,2.8150325E5,1.672042E5,-1.8514225E4,-4.5630773E4,9.552834E3,-3.303238E4,7.132011E4,4.9502344E3,5.876864E4,4.5169966E3,3.398158E4,4.472971E3,1.2385573E5,5.3333996E4,7.169251E3,1.4788241E4,5.1222803E3,1.9321383E5,-3.0218318E4,1.8615508E4,-3.4124953E4,-4.8737605E4,-1.9228688E3,4.548584E4,-4.8428734E4,-4.332496E3,8.520748E4,1.6241273E3,-5.687324E3,2.4309379E4,4.232917E3,2.3226904E3,3.1297756E4,6.8134805E3,8.726472E4,2.5212488E5,4.4149723E4,5.4904565E3,1.1146377E4,4.274149E3,-1.780077E3,-8.391201E2,1.8350858E3,-1.10475E3,-1.8633674E3,-1.2032518E3,-2.5968767E3,-2.0260182E3,4.0042337E2,-1.2789473E3,3.3303474E3,1.1234744E3,-2.6318057E3,-5.487143E2,3.2163962E2,-7.3519604E2,4.810761E3,3.1671116E3,4.6643912E2,-5.3411005E2,1.9577236E3,8.4124805E2,2.1448806E3,9.2223584E2,5.9447046E3,2.492872E3,1.5898727E4,8.1677393E3,1.935143E3,2.6216553E3],"categories":[],"categories_nodes":[],"categories_segments":[],"categories_sizes":[],"default_left":[0,0,0,0,0,0,0,0,0,0,0,0,0,0,0,0,0,0,0,0,0,0,0,0,0,0,0,0,0,0,0,0,0,0,0,0,0,0,0,0,0,0,0,0,0,0,0,0,0,0,0,0,0,0,0,0,0,0,0,0,0,0,0,0,0,0,0,0,0,0,0,0,0,0,0,0,0,0,0,0,0,0,0],"id":8,"left_children":[1,3,5,7,9,11,13,15,17,19,21,23,25,27,29,31,33,35,37,39,41,43,-1,45,-1,47,49,-1,-1,-1,51,53,55,57,59,61,63,65,67,69,-1,71,73,-1,-1,75,-1,77,79,81,-1,-1,-1,-1,-1,-1,-1,-1,-1,-1,-1,-1,-1,-1,-1,-1,-1,-1,-1,-1,-1,-1,-1,-1,-1,-1,-1,-1,-1,-1,-1,-1,-1],"loss_changes":[3.5927574E12,1.1455926E12,9.2834497E11,2.7020427E11,1.2098866E11,1.8264988E11,7.019482E10,2.0196675E11,7.989515E10,1.9308157E11,1.3628801E10,1.0685655E11,1.7876687E11,9.269412E8,8.84002E9,1.8438559E11,2.6862682E10,8.0084615E10,2.4976978E10,3.282944E10,2.7321549E10,9.139208E9,0E0,3.1148556E10,0E0,4.332678E11,2.7310293E10,0E0,0E0,0E0,1.6155378E10,2.2692299E10,7.591338E10,4.57207E9,1.4355792E10,3.497544E10,2.135153E10,5.2530053E9,2.4392663E9,5.4584934E9,0E0,6.5499617E9,4.563249E9,0E0,0E0,1.8143633E10,0E0,8.517629E10,7.08123E10,4.522066E8,0E0,0E0,0E0,0E0,0E0,0E0,0E0,0E0,0E0,0E0,0E0,0E0,0E0,0E0,0E0,0E0,0E0,0E0,0E0,0E0,0E0,0E0,0E0,0E0,0E0,0E0,0E0,0E0,0E0,0E0,0E0,0E0,0E0],"parents":[2147483647,0,0,1,1,2,2,3,3,4,4,5,5,6,6,7,7,8,8,9,9,10,10,11,11,12,12,13,13,14,14,15,15,16,16,17,17,18,18,19,19,20,20,21,21,23,23,25,25,26,26,30,30,31,31,32,32,33,33,34,34,35,35,36,36,37,37,38,38,39,39,41,41,42,42,45,45,47,47,48,48,49,49],"right_children":[2,4,6,8,10,12,14,16,18,20,22,24,26,28,30,32,34,36,38,40,42,44,-1,46,-1,48,50,-1,-1,-1,52,54,56,58,60,62,64,66,68,70,-1,72,74,-1,-1,76,-1,78,80,82,-1,-1,-1,-1,-1,-1,-1,-1,-1,-1,-1,-1,-1,-1,-1,-1,-1,-1,-1,-1,-1,-1,-1,-1,-1,-1,-1,-1,-1,-1,-1,-1,-1],"split_conditions":[1.1E1,6.9828E4,2.44125E5,9E0,1.39256E5,1.2E1,1E0,4E0,1.5E1,1.6E1,1.76974E5,1E0,1.5E1,1.2E1,2.86753E5,3E0,5E0,3.2861E4,4.8683E4,1E1,1.04764E5,1.7E1,4.5169966E3,1.54538E5,4.472971E3,8.699E4,1E0,7.169251E3,1.4788241E4,5.1222803E3,2E1,1E0,1.4E1,1E0,8E0,1.3E1,1E1,1E1,1.6E1,1.5E1,1.6241273E3,1.7E1,1.7E1,4.232917E3,2.3226904E3,1.5E1,6.8134805E3,1.2E1,1E0,1.74049E5,5.4904565E3,1.1146377E4,4.274149E3,-1.780077E3,-8.391201E2,1.8350858E3,-1.10475E3,-1.8633674E3,-1.2032518E3,-2.5968767E3,-2.0260182E3,4.0042337E2,-1.2789473E3,3.3303474E3,1.1234744E3,-2.6318057E3,-5.487143E2,3.2163962E2,-7.3519604E2,4.810761E3,3.1671116E3,4.6643912E2,-5.3411005E2,1.9577236E3,8.4124805E2,2.1448806E3,9.2223584E2,5.9447046E3,2.492872E3,1.5898727E4,8.1677393E3,1.935143E3,2.6216553E3],"split_indices":[4,1,1,4,1,4,3,4,0,0,1,3,0,4,1,4,4,1,1,4,1,0,0,1,0,1,3,0,0,0,0,3,0,3,4,0,4,4,0,0,0,0,0,0,0,0,0,0,3,1,0,0,0,0,0,0,0,0,0,0,0,0,0,0,0,0,0,0,0,0,0,0,0,0,0,0,0,0,0,0,0,0,0],"split_type":[0,0,0,0,0,0,0,0,0,0,0,0,0,0,0,0,0,0,0,0,0,0,0,0,0,0,0,0,0,0,0,0,0,0,0,0,0,0,0,0,0,0,0,0,0,0,0,0,0,0,0,0,0,0,0,0,0,0,0,0,0,0,0,0,0,0,0,0,0,0,0,0,0,0,0,0,0,0,0,0,0,0,0],"sum_hessian":[2.109E3,1.739E3,3.7E2,1.468E3,2.71E2,3.33E2,3.7E1,1.219E3,2.49E2,1.96E2,7.5E1,1.76E2,1.57E2,2.1E1,1.6E1,4.22E2,7.97E2,1.93E2,5.6E1,6.5E1,1.31E2,4E1,3.5E1,1.28E2,4.8E1,9.6E1,6.1E1,3E0,1.8E1,6E0,1E1,3.21E2,1.01E2,1.72E2,6.25E2,1.47E2,4.6E1,3.6E1,2E1,4.7E1,1.8E1,8.5E1,4.6E1,1.1E1,2.9E1,1.26E2,2E0,7.6E1,2E1,5.4E1,7E0,7E0,3E0,2.28E2,9.3E1,7E1,3.1E1,1.29E2,4.3E1,4.46E2,1.79E2,1.04E2,4.3E1,2.3E1,2.3E1,3.2E1,4E0,1E1,1E1,2.9E1,1.8E1,2.1E1,6.4E1,1.4E1,3.2E1,6.5E1,6.1E1,4E1,3.6E1,1E1,1E1,3.6E1,1.8E1],"tree_param":{"num_deleted":"0","num_feature":"5","num_nodes":"83","size_leaf_vector":"1"}},{"base_weights":[-5.1345715E2,-1.8741234E4,8.446878E4,-3.1833373E4,2.4565059E4,7.003472E4,2.4005311E5,-2.0510455E4,-4.2382508E4,9.218952E3,6.1736645E4,4.7342992E4,9.271485E4,1.2471487E4,3.469727E3,-3.1024459E4,1.6655125E4,-4.8809137E4,-3.4678812E4,6.3699746E4,-5.2857676E3,4.955179E4,4.3371523E3,3.0081912E4,4.4429194E3,1.1673347E5,5.6213465E4,-3.6095105E4,-7.202757E3,5.2223332E4,3.1569036E3,-2.0406614E3,-5.0500875E4,-1.7690064E4,-4.0581766E4,7.569161E4,1.4457473E3,-1.4293344E4,1.4579976E4,7.266295E4,3.4532223E4,2.7313168E4,6.5863647E3,8.311001E4,2.2114583E5,4.350024E4,1.12976266E5,-1.0345623E3,-2.1641516E3,-2.1181633E3,8.4370445E1,-6.8142035E2,3.7700388E3,1.1172568E3,-8.230522E2,-2.610356E3,-2.2107136E3,-1.0464672E3,-1.4087537E2,-2.1454714E3,-1.801204E3,-1.404582E2,3.9748313E3,-2.754409E2,-1.0689742E3,1.8780443E3,-1.8780256E1,4.0212297E3,1.3459332E3,1.00959E3,2.326571E3,1.8099183E3,8.6813245E2,5.8575117E3,2.3032964E3,1.5074197E4,7.1113438E3,2.0019915E3,4.0102898E3,6.1201494E3,2.1947563E3],"categories":[],"categories_nodes":[],"categories_segments":[],"categories_sizes":[],"default_left":[0,0,0,0,0,0,0,0,0,0,0,0,0,0,0,0,0,0,0,0,0,0,0,0,0,0,0,0,0,0,0,0,0,0,0,0,0,0,0,0,0,0,0,0,0,0,0,0,0,0,0,0,0,0,0,0,0,0,0,0,0,0,0,0,0,0,0,0,0,0,0,0,0,0,0,0,0,0,0,0,0],"id":9,"left_children":[1,3,5,7,9,11,13,15,17,19,21,23,25,-1,-1,27,29,31,33,35,37,39,-1,41,-1,43,45,47,49,51,53,-1,55,57,59,61,-1,63,65,67,69,71,-1,73,75,77,79,-1,-1,-1,-1,-1,-1,-1,-1,-1,-1,-1,-1,-1,-1,-1,-1,-1,-1,-1,-1,-1,-1,-1,-1,-1,-1,-1,-1,-1,-1,-1,-1,-1,-1],"loss_changes":[3.2452675E12,9.788087E11,8.141021E11,1.5739794E11,2.2817694E11,1.7059204E11,3.229732E10,2.5099325E11,3.2220905E10,2.2555184E11,3.1351538E10,1.20582275E11,1.4160259E11,0E0,0E0,6.013577E10,6.801041E10,2.9573775E9,3.0871486E10,2.283946E10,4.064933E10,2.5607471E10,0E0,3.1018009E10,0E0,3.3620165E11,4.487856E10,4.47218E10,2.789135E10,6.05523E10,3.9516934E10,0E0,9.3106995E8,3.939666E9,9.2605645E8,1.3365969E10,0E0,9.592975E9,2.4416303E10,8.841675E9,7.836201E9,1.0069402E10,0E0,9.296046E10,1.0928574E11,4.1555067E9,2.4415928E9,0E0,0E0,0E0,0E0,0E0,0E0,0E0,0E0,0E0,0E0,0E0,0E0,0E0,0E0,0E0,0E0,0E0,0E0,0E0,0E0,0E0,0E0,0E0,0E0,0E0,0E0,0E0,0E0,0E0,0E0,0E0,0E0,0E0,0E0],"parents":[2147483647,0,0,1,1,2,2,3,3,4,4,5,5,6,6,7,7,8,8,9,9,10,10,11,11,12,12,15,15,16,16,17,17,18,18,19,19,20,20,21,21,23,23,25,25,26,26,27,27,28,28,29,29,30,30,32,32,33,33,34,34,35,35,37,37,38,38,39,39,40,40,41,41,43,43,44,44,45,45,46,46],"right_children":[2,4,6,8,10,12,14,16,18,20,22,24,26,-1,-1,28,30,32,34,36,38,40,-1,42,-1,44,46,48,50,52,54,-1,56,58,60,62,-1,64,66,68,70,72,-1,74,76,78,80,-1,-1,-1,-1,-1,-1,-1,-1,-1,-1,-1,-1,-1,-1,-1,-1,-1,-1,-1,-1,-1,-1,-1,-1,-1,-1,-1,-1,-1,-1,-1,-1,-1,-1],"split_conditions":[1.1E1,4.8683E4,2.60175E5,1.4E1,1.13377E5,1.2E1,2E1,1.8148E4,2.6226E4,1.5E1,1.74049E5,1E0,1.5E1,1.2471487E4,3.469727E3,9E0,1.2E1,5E0,1.6E1,1E1,8.5866E4,1.7E1,4.3371523E3,1.54538E5,4.4429194E3,8.699E4,2.15524E5,4E0,4.596E3,3E0,1E0,-2.0406614E3,8E0,1E1,3.7498E4,3E0,1.4457473E3,1.7E1,1.7E1,1E1,1.39256E5,1.5E1,6.5863647E3,1.2E1,1E0,1E0,1.9E1,-1.0345623E3,-2.1641516E3,-2.1181633E3,8.4370445E1,-6.8142035E2,3.7700388E3,1.1172568E3,-8.230522E2,-2.610356E3,-2.2107136E3,-1.0464672E3,-1.4087537E2,-2.1454714E3,-1.801204E3,-1.404582E2,3.9748313E3,-2.754409E2,-1.0689742E3,1.8780443E3,-1.8780256E1,4.0212297E3,1.3459332E3,1.00959E3,2.326571E3,1.8099183E3,8.6813245E2,5.8575117E3,2.3032964E3,1.5074197E4,7.1113438E3,2.0019915E3,4.0102898E3,6.1201494E3,2.1947563E3],"split_indices":[4,1,1,0,1,4,0,1,1,0,1,3,0,0,0,4,0,4,0,4,1,0,0,1,0,1,1,4,1,4,3,0,4,4,1,4,0,0,0,4,1,0,0,0,3,3,0,0,0,0,0,0,0,0,0,0,0,0,0,0,0,0,0,0,0,0,0,0,0,0,0,0,0,0,0,0,0,0,0,0,0],"split_type":[0,0,0,0,0,0,0,0,0,0,0,0,0,0,0,0,0,0,0,0,0,0,0,0,0,0,0,0,0,0,0,0,0,0,0,0,0,0,0,0,0,0,0,0,0,0,0,0,0,0,0,0,0,0,0,0,0,0,0,0,0,0,0,0,0,0,0,0,0,0,0,0,0,0,0,0,0,0,0,0,0],"sum_hessian":[2.093E3,1.724E3,3.69E2,1.324E3,4E2,3.39E2,3E1,6.4E2,6.84E2,2.84E2,1.16E2,1.71E2,1.68E2,2.8E1,2E0,4.99E2,1.41E2,3.7E2,3.14E2,5.9E1,2.25E2,8E1,3.6E1,1.22E2,4.9E1,1E2,6.8E1,4.11E2,8.8E1,3.8E1,1.03E2,6.9E1,3.01E2,8.2E1,2.32E2,4.3E1,1.6E1,1.55E2,7E1,3E1,5E1,1.2E2,2E0,7.7E1,2.3E1,5.7E1,1.1E1,1.32E2,2.79E2,1.7E1,7.1E1,1E1,2.8E1,5.2E1,5.1E1,2.31E2,7E1,6.7E1,1.5E1,1.48E2,8.4E1,2E0,4.1E1,7E1,8.5E1,2.7E1,4.3E1,2.5E1,5E0,2.4E1,2.6E1,6.2E1,5.8E1,3.9E1,3.8E1,1E1,1.3E1,5.4E1,3E0,9E0,2E0],"tree_param":{"num_deleted":"0","num_feature":"5","num_nodes":"81","size_leaf_vector":"1"}},{"base_weights":[2.9288068E2,-1.8115434E4,8.344523E4,-2.7290736E4,4.142285E4,6.9805516E4,2.1146231E5,-3.2918875E4,-3.6230087E1,2.509043E4,6.984988E4,4.5732312E4,9.656842E4,1.2626593E4,7.217108E3,-2.1179018E4,-4.3850156E4,-6.943387E3,1.7961803E4,-6.359643E3,2.8189018E4,4.3985522E3,5.5480684E4,1.7593527E4,7.2187195E4,3.4579492E4,1.0606255E5,-2.5905162E4,-9.012541E3,-4.7066926E4,-3.6109164E4,-1.5801279E4,2.7887354E3,3.9675637E4,4.534351E3,-3.458071E2,2.1871094E1,3.815722E4,1.5997603E4,2.3921199E3,3.4802322E3,1.6296011E4,1.2334691E3,1.3901628E4,7.8195055E4,8.339E2,1.8215409E3,1.0534457E4,9.980546E4,-1.6787955E3,-9.038758E2,-2.1126004E2,-1.1002021E3,-2.5224897E3,-2.0412526E3,-1.9955518E3,-1.4238593E3,-1.7007913E3,-5.4641516E2,-9.996472E1,2.040705E3,8.7033344E2,2.6948818E3,-1.9756004E2,1.4099442E3,1.2928931E3,2.2837966E3,2.672275E2,1.4804584E3,9.998571E2,7.2583386E2,1.0322051E2,7.493748E2,3.0352427E3,4.433245E3,2.6244558E3,5.4067134E3],"categories":[],"categories_nodes":[],"categories_segments":[],"categories_sizes":[],"default_left":[0,0,0,0,0,0,0,0,0,0,0,0,0,0,0,0,0,0,0,0,0,0,0,0,0,0,0,0,0,0,0,0,0,0,0,0,0,0,0,0,0,0,0,0,0,0,0,0,0,0,0,0,0,0,0,0,0,0,0,0,0,0,0,0,0,0,0,0,0,0,0,0,0,0,0,0,0],"id":10,"left_children":[1,3,5,7,9,11,13,15,17,19,21,23,25,-1,-1,27,29,31,33,35,37,-1,39,41,43,45,47,49,51,53,55,57,59,61,63,-1,-1,65,67,-1,-1,69,-1,71,73,-1,-1,-1,75,-1,-1,-1,-1,-1,-1,-1,-1,-1,-1,-1,-1,-1,-1,-1,-1,-1,-1,-1,-1,-1,-1,-1,-1,-1,-1,-1,-1],"loss_changes":[3.200663E12,9.36365E11,6.47017E11,2.2763287E11,1.0456806E11,2.1721226E11,6.278637E10,1.5691927E11,3.1825103E10,1.4504534E10,1.6731439E10,1.3495668E11,9.167425E10,0E0,0E0,3.3979302E10,1.4137426E10,1.5992193E10,2.0520964E10,5.598112E7,1.5674122E10,0E0,1.9562168E9,4.242821E8,3.1829098E10,1.5466086E8,7.062408E10,2.5091834E10,1.0355742E10,7.357858E9,4.405461E9,8.2378936E9,1.6285526E10,7.612973E9,9.147718E9,0E0,0E0,5.569626E9,8.832044E9,0E0,0E0,2.2996582E8,0E0,9.759616E7,1.0182787E10,0E0,0E0,0E0,4.713205E10,0E0,0E0,0E0,0E0,0E0,0E0,0E0,0E0,0E0,0E0,0E0,0E0,0E0,0E0,0E0,0E0,0E0,0E0,0E0,0E0,0E0,0E0,0E0,0E0,0E0,0E0,0E0,0E0],"parents":[2147483647,0,0,1,1,2,2,3,3,4,4,5,5,6,6,7,7,8,8,9,9,10,10,11,11,12,12,15,15,16,16,17,17,18,18,19,19,20,20,22,22,23,23,24,24,25,25,26,26,27,27,28,28,29,29,30,30,31,31,32,32,33,33,34,34,37,37,38,38,41,41,43,43,44,44,48,48],"right_children":[2,4,6,8,10,12,14,16,18,20,22,24,26,-1,-1,28,30,32,34,36,38,-1,40,42,44,46,48,50,52,54,56,58,60,62,64,-1,-1,66,68,-1,-1,70,-1,72,74,-1,-1,-1,76,-1,-1,-1,-1,-1,-1,-1,-1,-1,-1,-1,-1,-1,-1,-1,-1,-1,-1,-1,-1,-1,-1,-1,-1,-1,-1,-1,-1],"split_conditions":[1.1E1,7.971E4,2.44125E5,9E0,1.39256E5,1.2E1,5E0,5E0,4.1242E4,3E0,4E0,3E0,2.512E4,1.2626593E4,7.217108E3,5E0,8E0,1E1,1E1,9.0008E4,1E1,4.3985522E3,1.76974E5,1.24584E5,1.6783E4,7.581E3,2.7859E4,3E0,4E0,5E0,5E0,7.072E3,5E0,4.8683E4,5E0,-3.458071E2,2.1871094E1,3E0,5E0,2.3921199E3,3.4802322E3,1E0,1.2334691E3,6.602E3,5E0,8.339E2,1.8215409E3,1.0534457E4,4.7804E4,-1.6787955E3,-9.038758E2,-2.1126004E2,-1.1002021E3,-2.5224897E3,-2.0412526E3,-1.9955518E3,-1.4238593E3,-1.7007913E3,-5.4641516E2,-9.996472E1,2.040705E3,8.7033344E2,2.6948818E3,-1.9756004E2,1.4099442E3,1.2928931E3,2.2837966E3,2.672275E2,1.4804584E3,9.998571E2,7.2583386E2,1.0322051E2,7.493748E2,3.0352427E3,4.433245E3,2.6244558E3,5.4067134E3],"split_indices":[4,1,1,4,1,4,2,4,1,4,4,2,1,0,0,2,4,4,4,1,4,0,1,1,1,1,1,4,4,2,2,1,2,1,2,0,0,2,2,0,0,2,0,1,2,0,0,0,1,0,0,0,0,0,0,0,0,0,0,0,0,0,0,0,0,0,0,0,0,0,0,0,0,0,0,0,0],"split_type":[0,0,0,0,0,0,0,0,0,0,0,0,0,0,0,0,0,0,0,0,0,0,0,0,0,0,0,0,0,0,0,0,0,0,0,0,0,0,0,0,0,0,0,0,0,0,0,0,0,0,0,0,0,0,0,0,0,0,0,0,0,0,0,0,0,0,0,0,0,0,0,0,0,0,0,0,0],"sum_hessian":[2.089E3,1.711E3,3.78E2,1.483E3,2.28E2,3.43E2,3.5E1,1.229E3,2.54E2,1.46E2,8.2E1,1.82E2,1.61E2,2E1,1.5E1,5.94E2,6.35E2,1.84E2,7E1,1.3E1,1.33E2,3.4E1,4.8E1,8.9E1,9.3E1,2.2E1,1.39E2,4.27E2,1.67E2,4.45E2,1.9E2,9.6E1,8.8E1,2.6E1,4.4E1,1.2E1,1E0,7.2E1,6.1E1,3.4E1,1.4E1,7.8E1,1.1E1,9E0,8.4E1,3E0,1.9E1,6E0,1.33E2,2.14E2,2.13E2,1.23E2,4.4E1,2.84E2,1.61E2,1.24E2,6.6E1,1.9E1,7.7E1,7.9E1,9E0,1.1E1,1.5E1,3.3E1,1.1E1,2.9E1,4.3E1,3.5E1,2.6E1,2.2E1,5.6E1,1E0,8E0,3.4E1,5E1,2.1E1,1.12E2],"tree_param":{"num_deleted":"0","num_feature":"5","num_nodes":"77","size_leaf_vector":"1"}},{"base_weights":[-1.6082301E2,-2.3661055E4,5.0368445E4,-4.938708E3,-3.4956023E4,4.0138965E4,1.976435E5,-2.116669E4,4.6928477E4,-4.197229E4,-2.4832352E4,9.939739E4,2.1831168E4,1.5533239E5,1.2145687E4,-3.0887174E4,-1.0191139E4,7.658027E4,1.5616803E4,-4.50121E4,-3.649421E4,2.4277976E3,-3.487392E4,8.316746E4,1.9829912E5,1.879067E2,5.351415E4,1.1544733E4,5.965913E3,-2.8364635E4,-2.1230276E3,-1.9439539E3,-2.9168648E4,4.5234918E4,1.08471125E5,5.478769E3,6.981431E4,-4.2013793E4,-2.4270232E3,-1.8593932E4,-3.9804793E4,1.3084254E4,-1.6880465E4,-2.0390652E4,-1.8441302E3,1.6989477E5,6.649119E4,1.3603453E4,1.3764845E5,-1.0850028E4,1.5238083E4,4.223531E4,7.923288E4,-1.6839219E3,-1.0736837E3,-3.6319946E2,1.5739291E3,-1.4923512E3,-3.2783255E2,3.044552E3,1.4423011E3,1.1140054E4,3.3773347E3,1.0877489E3,-8.225563E2,4.3945938E3,1.0362496E3,-2.2915713E3,-1.9097982E3,-5.4798157E2,-1.4454354E3,-1.5095428E3,-2.0751973E3,1.5117976E2,1.2734543E3,-1.1002743E3,-5.26646E2,-6.850346E2,-1.1642693E3,1.4586116E4,5.491872E3,1.8456959E3,4.1221304E3,8.982536E3,3.799106E3,-1.762261E1,-1.0015701E3,1.4957957E3,1.6790355E2,3.4900798E3,1.6229037E3,5.25815E3,3.2467627E3],"categories":[],"categories_nodes":[],"categories_segments":[],"categories_sizes":[],"default_left":[0,0,0,0,0,0,0,0,0,0,0,0,0,0,0,0,0,0,0,0,0,0,0,0,0,0,0,0,0,0,0,0,0,0,0,0,0,0,0,0,0,0,0,0,0,0,0,0,0,0,0,0,0,0,0,0,0,0,0,0,0,0,0,0,0,0,0,0,0,0,0,0,0,0,0,0,0,0,0,0,0,0,0,0,0,0,0,0,0,0,0,0,0],"id":11,"left_children":[1,3,5,7,9,11,13,15,17,19,21,23,25,27,-1,29,31,33,35,37,39,41,43,45,47,49,51,-1,-1,53,-1,55,57,59,61,63,65,67,-1,69,71,73,75,77,-1,79,81,-1,83,85,87,89,91,-1,-1,-1,-1,-1,-1,-1,-1,-1,-1,-1,-1,-1,-1,-1,-1,-1,-1,-1,-1,-1,-1,-1,-1,-1,-1,-1,-1,-1,-1,-1,-1,-1,-1,-1,-1,-1,-1,-1,-1],"loss_changes":[2.4912734E12,3.0265003E11,9.9542735E11,4.5551115E11,6.2387847E10,6.7480224E11,4.4631458E10,4.3640537E10,1.1857376E11,7.116423E9,1.0081906E11,2.1946761E11,3.2776552E11,4.0482767E10,0E0,5.1599933E9,3.046295E10,6.1068935E10,3.47827E10,1.4940242E9,1.0697146E10,2.0796635E10,7.073759E9,1.738284E11,5.2034077E10,4.751035E10,5.2928643E10,0E0,0E0,5.9411333E9,0E0,2.45885E10,7.093289E8,7.224074E9,1.3467494E11,1.9989348E10,7.052591E9,9.8952806E8,0E0,2.203047E9,1.3932954E9,8.021963E9,9.393439E8,3.587707E8,0E0,1.1429072E11,4.8382837E10,0E0,2.0021395E10,1.5896003E10,2.0998644E10,3.4658894E10,1.46741E10,0E0,0E0,0E0,0E0,0E0,0E0,0E0,0E0,0E0,0E0,0E0,0E0,0E0,0E0,0E0,0E0,0E0,0E0,0E0,0E0,0E0,0E0,0E0,0E0,0E0,0E0,0E0,0E0,0E0,0E0,0E0,0E0,0E0,0E0,0E0,0E0,0E0,0E0,0E0,0E0],"parents":[2147483647,0,0,1,1,2,2,3,3,4,4,5,5,6,6,7,7,8,8,9,9,10,10,11,11,12,12,13,13,15,15,16,16,17,17,18,18,19,19,20,20,21,21,22,22,23,23,24,24,25,25,26,26,29,29,31,31,32,32,33,33,34,34,35,35,36,36,37,37,39,39,40,40,41,41,42,42,43,43,45,45,46,46,48,48,49,49,50,50,51,51,52,52],"right_children":[2,4,6,8,10,12,14,16,18,20,22,24,26,28,-1,30,32,34,36,38,40,42,44,46,48,50,52,-1,-1,54,-1,56,58,60,62,64,66,68,-1,70,72,74,76,78,-1,80,82,-1,84,86,88,90,92,-1,-1,-1,-1,-1,-1,-1,-1,-1,-1,-1,-1,-1,-1,-1,-1,-1,-1,-1,-1,-1,-1,-1,-1,-1,-1,-1,-1,-1,-1,-1,-1,-1,-1,-1,-1,-1,-1,-1,-1],"split_conditions":[4.8683E4,1.3E1,2.44125E5,1.7077E4,2.7859E4,1.5E1,3.42682E5,7.489E3,1.2E1,1.9111E4,1.5E1,1.19642E5,1.24584E5,1.6E1,1.2145687E4,1.2E1,1.2E1,2.512E4,3.4932E4,1.5E1,1.4E1,5E0,1.6E1,1.2E1,5E0,8.6695E4,1.87947E5,1.1544733E4,5.965913E3,4.596E3,-2.1230276E3,1.4052E4,1.6611E4,5E0,5E0,5E0,5E0,1.0536E4,-2.4270232E3,5E0,1.5E1,3.7498E4,3.6179E4,3E0,-1.8441302E3,5E0,6.4484E4,1.3603453E4,1.4E1,1.7E1,1.7E1,1.7E1,1.8E1,-1.6839219E3,-1.0736837E3,-3.6319946E2,1.5739291E3,-1.4923512E3,-3.2783255E2,3.044552E3,1.4423011E3,1.1140054E4,3.3773347E3,1.0877489E3,-8.225563E2,4.3945938E3,1.0362496E3,-2.2915713E3,-1.9097982E3,-5.4798157E2,-1.4454354E3,-1.5095428E3,-2.0751973E3,1.5117976E2,1.2734543E3,-1.1002743E3,-5.26646E2,-6.850346E2,-1.1642693E3,1.4586116E4,5.491872E3,1.8456959E3,4.1221304E3,8.982536E3,3.799106E3,-1.762261E1,-1.0015701E3,1.4957957E3,1.6790355E2,3.4900798E3,1.6229037E3,5.25815E3,3.2467627E3],"split_indices":[1,0,1,1,1,0,1,1,0,1,0,1,1,0,0,0,0,1,1,0,0,2,0,0,2,1,1,0,0,1,0,1,1,2,2,2,2,1,0,2,0,1,1,2,0,2,1,0,0,0,0,0,0,0,0,0,0,0,0,0,0,0,0,0,0,0,0,0,0,0,0,0,0,0,0,0,0,0,0,0,0,0,0,0,0,0,0,0,0,0,0,0,0],"split_type":[0,0,0,0,0,0,0,0,0,0,0,0,0,0,0,0,0,0,0,0,0,0,0,0,0,0,0,0,0,0,0,0,0,0,0,0,0,0,0,0,0,0,0,0,0,0,0,0,0,0,0,0,0,0,0,0,0,0,0,0,0,0,0,0,0,0,0,0,0,0,0,0,0,0,0,0,0,0,0,0,0,0,0,0,0,0,0,0,0,0,0,0,0],"sum_hessian":[2.096E3,1.431E3,6.65E2,5.39E2,8.92E2,6.23E2,4.2E1,4.11E2,1.28E2,5.25E2,3.67E2,1.46E2,4.77E2,2.4E1,1.8E1,2.17E2,1.94E2,6.5E1,6.3E1,3.33E2,1.92E2,9.9E1,2.68E2,1.27E2,1.9E1,2.84E2,1.93E2,6E0,1.8E1,1.81E2,3.6E1,1.36E2,5.8E1,3.4E1,3.1E1,5.4E1,9E0,1.87E2,1.46E2,3.1E1,1.61E2,6.4E1,3.5E1,3.4E1,2.34E2,1.9E1,1.08E2,7E0,1.2E1,1.64E2,1.2E2,1.36E2,5.7E1,1E2,8.1E1,1.18E2,1.8E1,5.6E1,2E0,1.6E1,1.8E1,7E0,2.4E1,3.1E1,2.3E1,6E0,3E0,8.8E1,9.9E1,1.9E1,1.2E1,2.7E1,1.34E2,3.6E1,2.8E1,1.8E1,1.7E1,1.2E1,2.2E1,5E0,1.4E1,3.9E1,6.9E1,6E0,6E0,7.7E1,8.7E1,5.3E1,6.7E1,3.4E1,1.02E2,1.8E1,3.9E1],"tree_param":{"num_deleted":"0","num_feature":"5","num_nodes":"93","size_leaf_vector":"1"}},{"base_weights":[-3.8480338E2,-1.6685053E4,7.3696555E4,-2.6713502E4,2.537612E4,5.9539832E4,1.995402E5,-3.1489928E4,-1.1975992E3,7.9276904E3,4.9671566E4,4.2612566E4,7.9557695E4,2.2901289E5,1.3265755E5,-1.8573602E4,-3.759256E4,-2.993717E4,1.3441157E3,-1.0114322E4,1.490913E4,3.8250867E4,6.7481555E4,2.7059229E4,7.455051E4,4.3083332E4,9.305605E4,6.232355E3,1.2147826E4,3.323727E3,7.6241655E3,-2.6989861E4,9.564137E3,-2.99419E4,-3.9573062E4,-3.7416625E4,-3.0072578E3,-1.8198964E3,1.6673771E4,-1.2994225E4,-6.6464893E3,2.2334041E4,5.361874E3,4.390375E4,2.543118E4,3.992302E3,5.2617754E4,2.3531979E4,6.5260513E3,8.116882E4,2.9039512E3,3.7814938E4,4.315678E3,1.0984315E4,8.2621164E4,-1.5328739E3,-7.570983E2,-1.0030636E3,9.0063007E2,-1.6434297E3,-9.148839E2,-2.1211497E3,-1.6425355E3,-1.208767E3,-2.2162837E3,-2.6171124E2,1.4751524E2,-3.6357214E2,1.9909917E2,1.305062E3,3.1599908E2,-4.262969E1,-6.698703E2,-2.0003256E2,-4.408789E2,7.2644183E2,2.3108691E3,-3.7851116E1,1.1691724E3,1.2713523E3,2.4286335E3,3.1490842E2,1.5074283E3,2.7073257E3,1.1169427E3,8.53935E2,1.693915E3,4.8442153E3,3.4715872E3,2.096054E3,7.8184827E2,3.128957E3,4.715015E3],"categories":[],"categories_nodes":[],"categories_segments":[],"categories_sizes":[],"default_left":[0,0,0,0,0,0,0,0,0,0,0,0,0,0,0,0,0,0,0,0,0,0,0,0,0,0,0,0,0,0,0,0,0,0,0,0,0,0,0,0,0,0,0,0,0,0,0,0,0,0,0,0,0,0,0,0,0,0,0,0,0,0,0,0,0,0,0,0,0,0,0,0,0,0,0,0,0,0,0,0,0,0,0,0,0,0,0,0,0,0,0,0,0],"id":12,"left_children":[1,3,5,7,9,11,13,15,17,19,21,23,25,27,29,31,33,35,37,39,41,43,45,47,49,51,53,-1,-1,-1,-1,55,57,59,61,63,65,67,69,71,73,75,77,79,81,-1,83,85,-1,87,-1,89,-1,-1,91,-1,-1,-1,-1,-1,-1,-1,-1,-1,-1,-1,-1,-1,-1,-1,-1,-1,-1,-1,-1,-1,-1,-1,-1,-1,-1,-1,-1,-1,-1,-1,-1,-1,-1,-1,-1,-1,-1],"loss_changes":[2.5443185E12,7.291407E11,6.651023E11,1.6997758E11,1.407707E11,1.1283464E11,4.4525683E10,9.191948E10,1.6183803E10,2.4712847E10,2.569175E10,9.137016E10,7.279647E10,6.0972073E9,8.2335334E9,9.001082E10,1.0891428E10,3.5130573E9,9.924999E9,4.629202E8,9.87539E9,5.1881984E9,5.5391846E9,4.3640357E10,1.9356058E9,6.7572367E9,1.31164406E11,0E0,0E0,0E0,0E0,1.2224217E10,2.2386807E10,5.1238666E9,1.0676011E10,2.0919706E8,8.177902E7,5.4059213E9,3.2513915E9,1.3054054E8,1.1982131E8,1.4055252E10,6.9648466E9,3.8546473E9,2.4275948E9,0E0,4.0239104E7,7.7673677E9,0E0,8.3574784E8,0E0,3.078185E9,0E0,0E0,1.8910544E10,0E0,0E0,0E0,0E0,0E0,0E0,0E0,0E0,0E0,0E0,0E0,0E0,0E0,0E0,0E0,0E0,0E0,0E0,0E0,0E0,0E0,0E0,0E0,0E0,0E0,0E0,0E0,0E0,0E0,0E0,0E0,0E0,0E0,0E0,0E0,0E0,0E0,0E0],"parents":[2147483647,0,0,1,1,2,2,3,3,4,4,5,5,6,6,7,7,8,8,9,9,10,10,11,11,12,12,13,13,14,14,15,15,16,16,17,17,18,18,19,19,20,20,21,21,22,22,23,23,24,24,25,25,26,26,31,31,32,32,33,33,34,34,35,35,36,36,37,37,38,38,39,39,40,40,41,41,42,42,43,43,44,44,46,46,47,47,49,49,51,51,54,54],"right_children":[2,4,6,8,10,12,14,16,18,20,22,24,26,28,30,32,34,36,38,40,42,44,46,48,50,52,54,-1,-1,-1,-1,56,58,60,62,64,66,68,70,72,74,76,78,80,82,-1,84,86,-1,88,-1,90,-1,-1,92,-1,-1,-1,-1,-1,-1,-1,-1,-1,-1,-1,-1,-1,-1,-1,-1,-1,-1,-1,-1,-1,-1,-1,-1,-1,-1,-1,-1,-1,-1,-1,-1,-1,-1,-1,-1,-1,-1],"split_conditions":[1.1E1,5.767E4,2.44125E5,9E0,1.04764E5,1.2E1,5E0,4E0,4.345E3,3E0,1.58676E5,5E0,4.9452E4,1.2E1,2.86753E5,3E0,5E0,1E1,4.1242E4,6.9828E4,1E1,1E1,4E0,1.54538E5,6E0,5E0,5.5088E4,6.232355E3,1.2147826E4,3.323727E3,7.6241655E3,5E0,8.271E3,5E0,8E0,2.776E3,3.875E3,3E0,1E1,1E0,2E0,5E0,5E0,2E0,5E0,3.992302E3,1E1,3E0,6.5260513E3,9.2002E4,2.9039512E3,4E0,4.315678E3,1.0984315E4,2E0,-1.5328739E3,-7.570983E2,-1.0030636E3,9.0063007E2,-1.6434297E3,-9.148839E2,-2.1211497E3,-1.6425355E3,-1.208767E3,-2.2162837E3,-2.6171124E2,1.4751524E2,-3.6357214E2,1.9909917E2,1.305062E3,3.1599908E2,-4.262969E1,-6.698703E2,-2.0003256E2,-4.408789E2,7.2644183E2,2.3108691E3,-3.7851116E1,1.1691724E3,1.2713523E3,2.4286335E3,3.1490842E2,1.5074283E3,2.7073257E3,1.1169427E3,8.53935E2,1.693915E3,4.8442153E3,3.4715872E3,2.096054E3,7.8184827E2,3.128957E3,4.715015E3],"split_indices":[4,1,1,4,1,4,2,4,1,4,1,2,1,4,1,4,4,4,1,1,4,4,4,1,2,2,1,0,0,0,0,2,1,2,4,1,1,2,4,2,4,4,2,2,2,0,4,2,0,1,0,2,0,0,2,0,0,0,0,0,0,0,0,0,0,0,0,0,0,0,0,0,0,0,0,0,0,0,0,0,0,0,0,0,0,0,0,0,0,0,0,0,0],"split_type":[0,0,0,0,0,0,0,0,0,0,0,0,0,0,0,0,0,0,0,0,0,0,0,0,0,0,0,0,0,0,0,0,0,0,0,0,0,0,0,0,0,0,0,0,0,0,0,0,0,0,0,0,0,0,0,0,0,0,0,0,0,0,0,0,0,0,0,0,0,0,0,0,0,0,0,0,0,0,0,0,0,0,0,0,0,0,0,0,0,0,0,0,0],"sum_hessian":[2.105E3,1.726E3,3.79E2,1.394E3,3.32E2,3.42E2,3.7E1,1.174E3,2.2E2,1.94E2,1.38E2,1.87E2,1.55E2,2.4E1,1.3E1,3.78E2,7.96E2,1.7E1,2.03E2,5.4E1,1.4E2,8.6E1,5.2E1,1.27E2,6E1,4.3E1,1.12E2,4E0,2E1,4E0,9E0,2.91E2,8.7E1,1.67E2,6.29E2,1.3E1,4E0,1.69E2,3.4E1,2.8E1,2.6E1,7.8E1,6.2E1,5.8E1,2.8E1,2.6E1,2.6E1,1.24E2,3E0,4E1,2E1,4E1,3E0,7E0,1.05E2,2.21E2,7E1,1.9E1,6.8E1,1.32E2,3.5E1,4.38E2,1.91E2,6E0,7E0,3E0,1E0,8.7E1,8.2E1,1.7E1,1.7E1,1E0,2.7E1,1.3E1,1.3E1,6E1,1.8E1,4.7E1,1.5E1,1.3E1,4.5E1,6E0,2.2E1,2.4E1,2E0,7.8E1,4.6E1,1.4E1,2.6E1,3.3E1,7E0,4.1E1,6.4E1],"tree_param":{"num_deleted":"0","num_feature":"5","num_nodes":"93","size_leaf_vector":"1"}},{"base_weights":[1.6638136E2,-1.5200318E4,6.872203E4,-2.3117762E4,1.1462114E4,4.2646434E4,9.567109E4,-4.5953745E3,-3.5345113E4,3.135713E3,3.1361744E4,2.7240693E4,8.0547734E4,7.141622E4,1.08912164E5,-2.2693527E4,2.7311193E4,-2.6601623E4,-3.7806688E4,1.6544316E4,1.4671774E3,1.9404652E3,1.8123537E4,8.4047455E2,4.572817E4,4.5196807E3,2.8049207E3,7.822677E4,2.061454E3,1.3983798E5,9.6221555E4,-2.6900498E4,-1.2752242E4,1.7280758E4,3.488253E4,-2.8938332E4,-9.47421E2,-4.0366504E4,-3.0939766E4,2.6534281E4,5.520329E3,-3.03411E3,5.0003384E3,1.2195729E3,1.2384259E4,5.421399E4,5.5149204E3,6.7577234E4,4.637902E3,1.484335E5,4.3353496E3,3.5363743E3,5.0018706E3,-1.3564799E3,-5.399274E2,-5.0269043E2,-8.7475287E2,1.0706708E3,2.9423483E2,2.1492996E3,1.4367896E3,-1.0856631E3,-1.7720176E3,-2.1691643E3,-1.7479164E3,-1.7119225E3,-1.1876039E3,-6.436168E2,1.8309149E3,5.0328693E2,-1.4164893E1,2.079479E2,-2.1006749E2,5.2879126E2,-5.703188E1,4.8400803E2,8.460223E2,2.8218357E3,1.573576E3,9.590547E1,3.796555E2,3.9837273E3,2.1438071E3,5.574441E3,8.527832E3],"categories":[],"categories_nodes":[],"categories_segments":[],"categories_sizes":[],"default_left":[0,0,0,0,0,0,0,0,0,0,0,0,0,0,0,0,0,0,0,0,0,0,0,0,0,0,0,0,0,0,0,0,0,0,0,0,0,0,0,0,0,0,0,0,0,0,0,0,0,0,0,0,0,0,0,0,0,0,0,0,0,0,0,0,0,0,0,0,0,0,0,0,0,0,0,0,0,0,0,0,0,0,0,0,0],"id":13,"left_children":[1,3,5,7,9,11,13,15,17,19,21,23,25,27,29,31,33,35,37,39,41,-1,43,-1,45,-1,-1,47,-1,49,51,53,55,57,59,61,-1,63,65,67,69,71,73,-1,75,77,79,81,-1,83,-1,-1,-1,-1,-1,-1,-1,-1,-1,-1,-1,-1,-1,-1,-1,-1,-1,-1,-1,-1,-1,-1,-1,-1,-1,-1,-1,-1,-1,-1,-1,-1,-1,-1,-1],"loss_changes":[2.2323024E12,3.6567607E11,2.6857269E11,3.0218807E11,6.568151E10,1.14001445E11,5.3242495E10,3.0782318E11,1.6298607E10,6.2624635E9,1.0831938E10,2.6808402E10,8.650392E9,1.1166188E10,3.4032976E10,1.3876675E10,1.4054359E10,2.6706575E9,9.737339E9,3.2675297E9,4.007019E9,0E0,1.2807567E9,0E0,1.710438E10,0E0,0E0,2.3977329E9,0E0,2.2005023E9,1.5826944E9,5.849907E8,1.1423191E9,3.8771487E9,4.1940255E9,5.619417E9,0E0,5.85787E9,3.3122877E9,6.829393E9,4.2492938E8,9.4943296E8,4.8397527E9,0E0,1.428649E8,3.4695578E8,6.018413E7,7.341261E9,0E0,3.052798E9,0E0,0E0,0E0,0E0,0E0,0E0,0E0,0E0,0E0,0E0,0E0,0E0,0E0,0E0,0E0,0E0,0E0,0E0,0E0,0E0,0E0,0E0,0E0,0E0,0E0,0E0,0E0,0E0,0E0,0E0,0E0,0E0,0E0,0E0,0E0],"parents":[2147483647,0,0,1,1,2,2,3,3,4,4,5,5,6,6,7,7,8,8,9,9,10,10,11,11,12,12,13,13,14,14,15,15,16,16,17,17,18,18,19,19,20,20,22,22,24,24,27,27,29,29,30,30,31,31,32,32,33,33,34,34,35,35,37,37,38,38,39,39,40,40,41,41,42,42,44,44,45,45,46,46,47,47,49,49],"right_children":[2,4,6,8,10,12,14,16,18,20,22,24,26,28,30,32,34,36,38,40,42,-1,44,-1,46,-1,-1,48,-1,50,52,54,56,58,60,62,-1,64,66,68,70,72,74,-1,76,78,80,82,-1,84,-1,-1,-1,-1,-1,-1,-1,-1,-1,-1,-1,-1,-1,-1,-1,-1,-1,-1,-1,-1,-1,-1,-1,-1,-1,-1,-1,-1,-1,-1,-1,-1,-1,-1,-1],"split_conditions":[1.1E1,9E0,1.2E1,4E0,5E0,5E0,2E0,3E0,5E0,1.1E1,6E0,3E0,6E0,1.8E1,1.3E1,5E0,3E0,5E0,8E0,1E1,2E0,1.9404652E3,1.4E1,8.4047455E2,1.8E1,4.5196807E3,2.8049207E3,1.5E1,2.061454E3,6E0,1.4E1,1.9E1,6E0,2E0,1.4E1,2E0,-9.47421E2,5E0,5E0,1E0,3E0,1.2E1,1E1,1.2195729E3,1.7E1,1.7E1,4E0,1.3E1,4.637902E3,1.1E1,4.3353496E3,3.5363743E3,5.0018706E3,-1.3564799E3,-5.399274E2,-5.0269043E2,-8.7475287E2,1.0706708E3,2.9423483E2,2.1492996E3,1.4367896E3,-1.0856631E3,-1.7720176E3,-2.1691643E3,-1.7479164E3,-1.7119225E3,-1.1876039E3,-6.436168E2,1.8309149E3,5.0328693E2,-1.4164893E1,2.079479E2,-2.1006749E2,5.2879126E2,-5.703188E1,4.8400803E2,8.460223E2,2.8218357E3,1.573576E3,9.590547E1,3.796555E2,3.9837273E3,2.1438071E3,5.574441E3,8.527832E3],"split_indices":[4,4,4,4,2,2,2,4,4,0,2,2,2,0,0,2,2,2,4,4,2,0,0,0,0,0,0,0,0,2,0,0,2,2,0,2,0,2,2,2,2,0,4,0,0,0,2,0,0,0,0,0,0,0,0,0,0,0,0,0,0,0,0,0,0,0,0,0,0,0,0,0,0,0,0,0,0,0,0,0,0,0,0,0,0],"split_type":[0,0,0,0,0,0,0,0,0,0,0,0,0,0,0,0,0,0,0,0,0,0,0,0,0,0,0,0,0,0,0,0,0,0,0,0,0,0,0,0,0,0,0,0,0,0,0,0,0,0,0,0,0,0,0,0,0,0,0,0,0,0,0,0,0,0,0,0,0,0,0,0,0,0,0,0,0,0,0,0,0,0,0,0,0],"sum_hessian":[2.117E3,1.73E3,3.87E2,1.334E3,3.96E2,1.98E2,1.89E2,5.31E2,8.03E2,2.8E2,1.16E2,1.42E2,5.6E1,6.9E1,1.2E2,3.39E2,1.92E2,1.79E2,6.24E2,3E1,2.5E2,7.3E1,4.3E1,9.2E1,5E1,3.8E1,1.8E1,5.5E1,1.4E1,3.2E1,8.8E1,2.37E2,1.02E2,8.4E1,1.08E2,1.35E2,4.4E1,4.51E2,1.73E2,1.5E1,1.5E1,1.1E2,1.4E2,1.9E1,2.4E1,4.1E1,9E0,3.5E1,2E1,2.6E1,6E0,1.4E1,7.4E1,2.33E2,4E0,6.7E1,3.5E1,6.1E1,2.3E1,4.4E1,6.4E1,6.6E1,6.9E1,2.85E2,1.66E2,1.16E2,5.7E1,3E0,1.2E1,8E0,7E0,1.5E1,9.5E1,7.3E1,6.7E1,1.7E1,7E0,3.6E1,5E0,4E0,5E0,2.2E1,1.3E1,1.2E1,1.4E1],"tree_param":{"num_deleted":"0","num_feature":"5","num_nodes":"85","size_leaf_vector":"1"}},{"base_weights":[6.5112195E2,-1.4761634E4,6.831618E4,-2.3737055E4,2.906307E4,5.506806E4,1.8038988E5,-2.7499889E4,-2.5939497E3,1.574412E4,5.7990953E4,7.1346086E4,3.2927465E4,2.1520647E5,1.2394607E5,-1.4709819E4,-3.4084375E4,7.0626084E3,-3.674022E4,5.5006086E4,-8.3953094E2,7.09652E4,4.6646043E4,5.1769906E4,1.6017598E5,1.9074098E4,6.4134633E4,5.9343506E3,1.1428801E4,9.924204E4,8.416407E3,-2.318371E4,1.3601443E4,-2.7263885E4,-3.595049E4,-1.0141204E4,2.3592006E4,-4.387791E4,-9.3490796E2,6.6013914E4,1.1639792E3,-9.919813E3,1.3869281E4,7.32099E4,3.1899316E4,4.9917496E4,1.2734691E3,7.368704E4,2.870091E4,1.269505E4,1.02734266E5,1.2364018E4,3.075624E4,4.4754507E3,4.117322E4,7.7976455E3,3.4798953E3,-1.3198556E3,-7.013428E2,1.4040884E3,-1.0410718E3,-1.4902577E3,-8.7863135E2,-1.9133866E3,-1.4934592E3,1.8932591E2,-1.7037631E3,3.1095989E3,6.6646356E2,-2.3726394E3,-4.6816055E2,3.3710965E2,-6.108416E2,3.7247083E3,2.1260474E3,1.6458977E2,-6.776424E2,1.1149854E3,1.8042162E2,2.0367131E3,3.791625E3,1.7320117E2,2.0111537E3,1.9169183E3,3.156769E3,1.3137185E3,7.201664E3,6.774602E2,3.0698494E3,7.454825E3,3.9498528E3,4.9344272E2,9.4426874E2,2.7276218E3,9.5205176E2,1.1435411E3,2.335624E3],"categories":[],"categories_nodes":[],"categories_segments":[],"categories_sizes":[],"default_left":[0,0,0,0,0,0,0,0,0,0,0,0,0,0,0,0,0,0,0,0,0,0,0,0,0,0,0,0,0,0,0,0,0,0,0,0,0,0,0,0,0,0,0,0,0,0,0,0,0,0,0,0,0,0,0,0,0,0,0,0,0,0,0,0,0,0,0,0,0,0,0,0,0,0,0,0,0,0,0,0,0,0,0,0,0,0,0,0,0,0,0,0,0,0,0,0,0],"id":14,"left_children":[1,3,5,7,9,11,13,15,17,19,21,23,25,27,29,31,33,35,37,39,41,43,45,47,49,51,53,-1,-1,55,-1,57,59,61,63,65,67,69,71,73,-1,75,77,79,81,83,-1,85,87,-1,89,91,93,-1,95,-1,-1,-1,-1,-1,-1,-1,-1,-1,-1,-1,-1,-1,-1,-1,-1,-1,-1,-1,-1,-1,-1,-1,-1,-1,-1,-1,-1,-1,-1,-1,-1,-1,-1,-1,-1,-1,-1,-1,-1,-1,-1],"loss_changes":[2.2036236E12,6.77637E11,5.720944E11,1.13616945E11,1.1197666E11,1.2451335E11,5.389851E10,1.0165276E11,7.181207E10,1.31569754E11,1.0231382E10,3.429757E11,6.405767E10,3.841065E9,3.0302536E9,9.963665E10,9.202041E9,4.8581923E10,1.2226204E10,1.9417612E10,1.9236684E10,1.2599788E9,2.3311155E9,8.2321375E10,1.6772976E11,7.928869E9,2.3115678E10,0E0,0E0,1.2682019E10,0E0,9.016197E9,4.843633E10,3.8107791E9,7.664435E9,2.8130169E10,3.363532E10,4.4911165E9,8.6188045E8,5.5983964E9,0E0,4.316456E9,4.6772173E9,1.4750515E8,8.0742016E8,4.3137516E9,0E0,2.797164E11,4.028643E10,0E0,1.4634058E10,9.363804E8,9.554809E9,0E0,1.567576E9,0E0,0E0,0E0,0E0,0E0,0E0,0E0,0E0,0E0,0E0,0E0,0E0,0E0,0E0,0E0,0E0,0E0,0E0,0E0,0E0,0E0,0E0,0E0,0E0,0E0,0E0,0E0,0E0,0E0,0E0,0E0,0E0,0E0,0E0,0E0,0E0,0E0,0E0,0E0,0E0,0E0,0E0],"parents":[2147483647,0,0,1,1,2,2,3,3,4,4,5,5,6,6,7,7,8,8,9,9,10,10,11,11,12,12,13,13,14,14,15,15,16,16,17,17,18,18,19,19,20,20,21,21,22,22,23,23,24,24,25,25,26,26,29,29,31,31,32,32,33,33,34,34,35,35,36,36,37,37,38,38,39,39,41,41,42,42,43,43,44,44,45,45,47,47,48,48,50,50,51,51,52,52,54,54],"right_children":[2,4,6,8,10,12,14,16,18,20,22,24,26,28,30,32,34,36,38,40,42,44,46,48,50,52,54,-1,-1,56,-1,58,60,62,64,66,68,70,72,74,-1,76,78,80,82,84,-1,86,88,-1,90,92,94,-1,96,-1,-1,-1,-1,-1,-1,-1,-1,-1,-1,-1,-1,-1,-1,-1,-1,-1,-1,-1,-1,-1,-1,-1,-1,-1,-1,-1,-1,-1,-1,-1,-1,-1,-1,-1,-1,-1,-1,-1,-1,-1,-1],"split_conditions":[1.1E1,6.7417E4,2.44125E5,9E0,1.30827E5,1.5E1,1E0,4E0,1.5E1,1.6E1,4E0,8.699E4,1.74049E5,1.2E1,3.42682E5,3E0,5E0,1.7841E4,5.3324E4,1E1,9.6285E4,2E1,1E1,1.2E1,1E0,1.36412E5,1.8E1,5.9343506E3,1.1428801E4,1.7E1,8.416407E3,1E0,1.4E1,1E0,8E0,1.2E1,1.2E1,1E1,1.6E1,1.5E1,1.1639792E3,1.7E1,1.8E1,1.39256E5,1.51813E5,1E0,1.2734691E3,2.1233E4,5.4328E4,1.269505E4,1.3E1,1.2E1,1.7E1,4.4754507E3,1.93597E5,7.7976455E3,3.4798953E3,-1.3198556E3,-7.013428E2,1.4040884E3,-1.0410718E3,-1.4902577E3,-8.7863135E2,-1.9133866E3,-1.4934592E3,1.8932591E2,-1.7037631E3,3.1095989E3,6.6646356E2,-2.3726394E3,-4.6816055E2,3.3710965E2,-6.108416E2,3.7247083E3,2.1260474E3,1.6458977E2,-6.776424E2,1.1149854E3,1.8042162E2,2.0367131E3,3.791625E3,1.7320117E2,2.0111537E3,1.9169183E3,3.156769E3,1.3137185E3,7.201664E3,6.774602E2,3.0698494E3,7.454825E3,3.9498528E3,4.9344272E2,9.4426874E2,2.7276218E3,9.5205176E2,1.1435411E3,2.335624E3],"split_indices":[4,1,1,4,1,0,3,4,0,0,4,1,1,4,1,4,4,1,1,4,1,0,4,0,3,1,0,0,0,0,0,3,0,3,4,0,0,4,0,0,0,0,0,1,1,3,0,1,1,0,0,4,0,0,1,0,0,0,0,0,0,0,0,0,0,0,0,0,0,0,0,0,0,0,0,0,0,0,0,0,0,0,0,0,0,0,0,0,0,0,0,0,0,0,0,0,0],"split_type":[0,0,0,0,0,0,0,0,0,0,0,0,0,0,0,0,0,0,0,0,0,0,0,0,0,0,0,0,0,0,0,0,0,0,0,0,0,0,0,0,0,0,0,0,0,0,0,0,0,0,0,0,0,0,0,0,0,0,0,0,0,0,0,0,0,0,0,0,0,0,0,0,0,0,0,0,0,0,0,0,0,0,0,0,0,0,0,0,0,0,0,0,0,0,0,0,0],"sum_hessian":[2.111E3,1.72E3,3.91E2,1.428E3,2.92E2,3.51E2,4E1,1.212E3,2.16E2,2.01E2,9.1E1,2.01E2,1.5E2,2.3E1,1.7E1,4.13E2,7.99E2,1.69E2,4.7E1,5.9E1,1.42E2,4E1,5.1E1,1.66E2,3.5E1,1.05E2,4.5E1,4E0,1.9E1,1.3E1,4E0,3.18E2,9.5E1,1.75E2,6.24E2,8.3E1,8.6E1,3.9E1,8E0,4.3E1,1.6E1,8.8E1,5.4E1,3.7E1,3E0,4.3E1,8E0,8.4E1,8.2E1,1.2E1,2.3E1,6.8E1,3.7E1,2E1,2.5E1,3E0,1E1,2.34E2,8.4E1,6.7E1,2.8E1,1.37E2,3.8E1,4.48E2,1.76E2,5.3E1,3E1,1.7E1,6.9E1,3.5E1,4E0,5E0,3E0,3E1,1.3E1,1.9E1,6.9E1,2.9E1,2.5E1,4E0,3.3E1,1E0,2E0,2.5E1,1.8E1,5.1E1,3.3E1,5.7E1,2.5E1,6E0,1.7E1,5.1E1,1.7E1,1.1E1,2.6E1,7E0,1.8E1],"tree_param":{"num_deleted":"0","num_feature":"5","num_nodes":"97","size_leaf_vector":"1"}},{"base_weights":[7.5951184E2,-1.3942483E4,6.3928535E4,-2.357833E4,2.2734049E4,5.18478E4,1.7473306E5,-2.6766273E4,-5.6150303E3,9.575486E3,4.8217688E4,3.385355E4,6.995388E4,2.080279E5,5.970434E3,-1.3955822E4,-3.2614133E4,-9.765733E3,1.8265273E4,-8.676758E3,1.4851408E4,7.095063E4,3.6681113E4,1.3930686E4,5.319817E4,1.4063045E4,7.458285E4,5.6969766E3,1.1091959E4,-2.2538053E4,1.4148602E4,-3.5124594E4,-2.6902164E4,-1.9708904E4,2.8183125E3,4.080669E4,7.188934E3,-6.7898643E3,-1.3582892E4,1.9300787E4,7.435494E3,3.9493677E3,5.0383355E4,4.3766887E4,2.197771E4,8.6269104E2,1.2207223E4,2.4034783E4,5.9405316E4,7.8157427E3,2.49945E4,6.379373E4,8.6520055E4,4.9385147E2,-1.1763876E3,-9.943846E2,1.0809739E3,-1.4341615E3,-1.8527324E3,-8.072822E2,-1.433044E3,-2.3097122E3,-7.5840814E2,-4.504777E1,1.592303E3,3.953746E2,2.1791775E3,6.286483E2,-1.5550461E3,-4.9775827E2,-2.5684015E2,-7.0455194E2,-1.7442422E2,6.011785E2,2.0233447E3,3.564143E1,1.0717206E3,6.985888E2,2.7643818E3,1.5313569E3,3.2615046E3,3.5214313E2,1.3204789E3,5.4017804E2,9.792383E2,3.3214963E2,1.2333533E3,7.3984517E3,2.686937E3,1.6941711E2,4.9308188E2,3.5904727E2,1.3826327E3,5.843876E3,2.9674211E3,2.5426492E3,4.796755E3],"categories":[],"categories_nodes":[],"categories_segments":[],"categories_sizes":[],"default_left":[0,0,0,0,0,0,0,0,0,0,0,0,0,0,0,0,0,0,0,0,0,0,0,0,0,0,0,0,0,0,0,0,0,0,0,0,0,0,0,0,0,0,0,0,0,0,0,0,0,0,0,0,0,0,0,0,0,0,0,0,0,0,0,0,0,0,0,0,0,0,0,0,0,0,0,0,0,0,0,0,0,0,0,0,0,0,0,0,0,0,0,0,0,0,0,0,0],"id":15,"left_children":[1,3,5,7,9,11,13,15,17,19,21,23,25,27,-1,29,31,33,35,37,39,41,43,45,47,49,51,-1,-1,53,55,57,59,61,63,65,67,69,71,73,75,-1,77,79,81,-1,83,85,87,89,91,93,95,-1,-1,-1,-1,-1,-1,-1,-1,-1,-1,-1,-1,-1,-1,-1,-1,-1,-1,-1,-1,-1,-1,-1,-1,-1,-1,-1,-1,-1,-1,-1,-1,-1,-1,-1,-1,-1,-1,-1,-1,-1,-1,-1,-1],"loss_changes":[1.9725441E12,6.0946055E11,5.2771907E11,7.801779E10,1.199211E11,1.1589917E11,4.6998225E10,8.636976E10,2.0696222E10,2.304765E10,2.939319E10,7.017256E10,4.552019E10,4.6118994E9,0E0,8.835639E10,1.0455089E10,2.2202722E10,7.446612E9,4.076713E8,5.96079E9,2.6320732E9,7.685456E9,3.1629107E8,1.5407186E10,8.290309E8,1.5860105E10,0E0,0E0,9.215115E9,2.2298118E10,5.762515E9,4.209918E9,1.1205362E10,8.557688E9,5.689262E8,4.9264143E9,1.6339213E8,2.2655744E7,1.7226936E10,6.666534E9,0E0,1.7275494E9,1.3513351E10,1.7334897E9,0E0,4.5117235E8,3.40736E7,3.0189158E10,6.622336E7,3.8183424E7,1.4537064E10,2.064266E10,0E0,0E0,0E0,0E0,0E0,0E0,0E0,0E0,0E0,0E0,0E0,0E0,0E0,0E0,0E0,0E0,0E0,0E0,0E0,0E0,0E0,0E0,0E0,0E0,0E0,0E0,0E0,0E0,0E0,0E0,0E0,0E0,0E0,0E0,0E0,0E0,0E0,0E0,0E0,0E0,0E0,0E0,0E0,0E0],"parents":[2147483647,0,0,1,1,2,2,3,3,4,4,5,5,6,6,7,7,8,8,9,9,10,10,11,11,12,12,13,13,15,15,16,16,17,17,18,18,19,19,20,20,21,21,22,22,23,23,24,24,25,25,26,26,29,29,30,30,31,31,32,32,33,33,34,34,35,35,36,36,37,37,38,38,39,39,40,40,42,42,43,43,44,44,46,46,47,47,48,48,49,49,50,50,51,51,52,52],"right_children":[2,4,6,8,10,12,14,16,18,20,22,24,26,28,-1,30,32,34,36,38,40,42,44,46,48,50,52,-1,-1,54,56,58,60,62,64,66,68,70,72,74,76,-1,78,80,82,-1,84,86,88,90,92,94,96,-1,-1,-1,-1,-1,-1,-1,-1,-1,-1,-1,-1,-1,-1,-1,-1,-1,-1,-1,-1,-1,-1,-1,-1,-1,-1,-1,-1,-1,-1,-1,-1,-1,-1,-1,-1,-1,-1,-1,-1,-1,-1,-1,-1],"split_conditions":[1.1E1,5.4328E4,2.44125E5,9E0,1.11406E5,3E0,5E0,4E0,4.1242E4,3E0,4E0,1.2E1,1.6272E4,1.2E1,5.970434E3,3E0,5E0,1E1,4.4628E4,6E0,1E1,5E0,1E1,1E0,2.512E4,1.2E1,1.2E1,5.6969766E3,1.1091959E4,6.122E3,8.271E3,5E0,5E0,4.596E3,5E0,1E0,6E0,6.275E4,7.8485E4,9E0,5E0,3.9493677E3,1.24584E5,5E0,5E0,8.6269104E2,1.28897E5,5.445E3,2.7859E4,4E0,7.581E3,2.1486E4,4.9452E4,4.9385147E2,-1.1763876E3,-9.943846E2,1.0809739E3,-1.4341615E3,-1.8527324E3,-8.072822E2,-1.433044E3,-2.3097122E3,-7.5840814E2,-4.504777E1,1.592303E3,3.953746E2,2.1791775E3,6.286483E2,-1.5550461E3,-4.9775827E2,-2.5684015E2,-7.0455194E2,-1.7442422E2,6.011785E2,2.0233447E3,3.564143E1,1.0717206E3,6.985888E2,2.7643818E3,1.5313569E3,3.2615046E3,3.5214313E2,1.3204789E3,5.4017804E2,9.792383E2,3.3214963E2,1.2333533E3,7.3984517E3,2.686937E3,1.6941711E2,4.9308188E2,3.5904727E2,1.3826327E3,5.843876E3,2.9674211E3,2.5426492E3,4.796755E3],"split_indices":[4,1,1,4,1,2,2,4,1,4,4,4,1,4,0,4,2,4,1,2,4,2,4,2,1,4,4,0,0,1,1,4,4,1,2,2,2,1,1,4,2,0,1,2,2,0,1,1,1,2,1,1,1,0,0,0,0,0,0,0,0,0,0,0,0,0,0,0,0,0,0,0,0,0,0,0,0,0,0,0,0,0,0,0,0,0,0,0,0,0,0,0,0,0,0,0,0],"split_type":[0,0,0,0,0,0,0,0,0,0,0,0,0,0,0,0,0,0,0,0,0,0,0,0,0,0,0,0,0,0,0,0,0,0,0,0,0,0,0,0,0,0,0,0,0,0,0,0,0,0,0,0,0,0,0,0,0,0,0,0,0,0,0,0,0,0,0,0,0,0,0,0,0,0,0,0,0,0,0,0,0,0,0,0,0,0,0,0,0,0,0,0,0,0,0,0,0],"sum_hessian":[2.122E3,1.722E3,4E2,1.364E3,3.58E2,3.62E2,3.8E1,1.158E3,2.06E2,2.37E2,1.21E2,1.83E2,1.79E2,2.2E1,1.6E1,3.64E2,7.94E2,1.76E2,3E1,5.3E1,1.84E2,3.9E1,8.2E1,9.1E1,9.2E1,1.4E1,1.65E2,4E0,1.8E1,2.79E2,8.5E1,5.48E2,2.46E2,9.8E1,7.8E1,9E0,2.1E1,4E1,1.3E1,1.14E2,7E1,2.6E1,1.3E1,5.4E1,2.8E1,2.8E1,6.3E1,1.7E1,7.5E1,1E1,4E0,9E1,7.5E1,8E0,2.71E2,1.5E1,7E1,1.3E2,4.18E2,3.6E1,2.1E2,1.3E1,8.5E1,7E1,8E0,1E0,8E0,1.9E1,2E0,1.2E1,2.8E1,1.2E1,1E0,8.6E1,2.8E1,4.8E1,2.2E1,2E0,1.1E1,3.5E1,1.9E1,7E0,2.1E1,5.5E1,8E0,1E0,1.6E1,3E0,7.2E1,4E0,6E0,1E0,3E0,5E0,8.5E1,1.7E1,5.8E1],"tree_param":{"num_deleted":"0","num_feature":"5","num_nodes":"97","size_leaf_vector":"1"}},{"base_weights":[5.5914996E2,-1.2867116E4,5.9674906E4,-2.2421225E4,1.895599E4,4.8995598E4,1.6567839E5,-2.6126223E4,-2.3048674E3,6.0033887E3,4.678196E4,3.931799E4,8.152896E4,9.585765E3,6.5218574E3,-1.4995445E4,-3.11249E4,-5.1523237E3,2.1614988E4,-9.288395E3,1.1610948E4,6.5518977E4,3.5042445E4,2.4966744E4,5.4125508E4,6.562828E4,5.05557E3,-2.236425E4,1.00990625E4,-3.341719E4,-2.605176E4,-1.313497E4,3.7052783E3,3.977738E4,5.9812285E3,-1.2003521E4,-4.9965967E3,1.579938E4,4.82394E3,3.7539158E3,4.885996E4,4.1393496E4,1.670593E4,2.207863E4,5.918246E3,2.2446635E4,6.190946E4,3.7453367E3,4.4848266E4,-1.2829458E3,-5.865342E2,-1.0239355E3,9.0949524E2,-1.3554425E3,-1.7586332E3,-7.486707E2,-1.377441E3,-1.1230955E3,-1.1529659E2,1.9942257E0,1.4679705E3,3.8549023E2,2.12419E3,1.3768412E3,-8.214415E2,-7.3408417E2,-5.132162E2,-1.4572823E2,-3.4421625E2,4.0357736E2,1.819826E3,-1.1117803E2,1.0733461E3,1.4932827E3,2.9517014E3,1.4653984E3,3.064571E3,3.568095E2,1.0832312E3,6.8246967E2,1.9320192E3,1.2666648E3,3.819996E2,8.284237E3,2.813538E3,5.3811523E2,2.3152996E3],"categories":[],"categories_nodes":[],"categories_segments":[],"categories_sizes":[],"default_left":[0,0,0,0,0,0,0,0,0,0,0,0,0,0,0,0,0,0,0,0,0,0,0,0,0,0,0,0,0,0,0,0,0,0,0,0,0,0,0,0,0,0,0,0,0,0,0,0,0,0,0,0,0,0,0,0,0,0,0,0,0,0,0,0,0,0,0,0,0,0,0,0,0,0,0,0,0,0,0,0,0,0,0,0,0,0,0],"id":16,"left_children":[1,3,5,7,9,11,13,15,17,19,21,23,25,-1,-1,27,29,31,33,35,37,39,41,43,45,47,-1,49,51,53,55,57,59,61,63,65,67,69,71,-1,73,75,77,79,-1,81,83,-1,85,-1,-1,-1,-1,-1,-1,-1,-1,-1,-1,-1,-1,-1,-1,-1,-1,-1,-1,-1,-1,-1,-1,-1,-1,-1,-1,-1,-1,-1,-1,-1,-1,-1,-1,-1,-1,-1,-1],"loss_changes":[1.6596092E12,5.185116E11,4.2998353E11,9.765002E10,1.4172412E11,1.0793478E11,7.108231E9,6.1125886E10,1.4074071E10,2.3260236E10,2.5199477E10,5.6875385E10,1.8274157E10,0E0,0E0,6.402207E10,8.0024044E9,1.3058775E10,6.0089057E9,7.9067546E8,5.5523144E9,3.8163907E9,8.5085143E9,3.5420627E10,3.1653003E10,5.702451E9,0E0,9.053086E9,1.99171E10,4.827185E9,3.6010557E9,9.745375E9,8.273687E9,5.4034125E8,6.7322056E9,5.424845E7,9.784448E7,1.912512E10,9.079173E9,0E0,2.1018952E9,1.2151333E10,8.893727E8,1.8737779E10,0E0,1.00322304E9,5.3288632E10,0E0,3.4633933E8,0E0,0E0,0E0,0E0,0E0,0E0,0E0,0E0,0E0,0E0,0E0,0E0,0E0,0E0,0E0,0E0,0E0,0E0,0E0,0E0,0E0,0E0,0E0,0E0,0E0,0E0,0E0,0E0,0E0,0E0,0E0,0E0,0E0,0E0,0E0,0E0,0E0,0E0],"parents":[2147483647,0,0,1,1,2,2,3,3,4,4,5,5,6,6,7,7,8,8,9,9,10,10,11,11,12,12,15,15,16,16,17,17,18,18,19,19,20,20,21,21,22,22,23,23,24,24,25,25,27,27,28,28,29,29,30,30,31,31,32,32,33,33,34,34,35,35,36,36,37,37,38,38,40,40,41,41,42,42,43,43,45,45,46,46,48,48],"right_children":[2,4,6,8,10,12,14,16,18,20,22,24,26,-1,-1,28,30,32,34,36,38,40,42,44,46,48,-1,50,52,54,56,58,60,62,64,66,68,70,72,-1,74,76,78,80,-1,82,84,-1,86,-1,-1,-1,-1,-1,-1,-1,-1,-1,-1,-1,-1,-1,-1,-1,-1,-1,-1,-1,-1,-1,-1,-1,-1,-1,-1,-1,-1,-1,-1,-1,-1,-1,-1,-1,-1,-1,-1],"split_conditions":[1.1E1,5.0483E4,2.44125E5,9E0,1.11406E5,5E0,5E0,4E0,4.1242E4,3E0,4E0,1.2E1,1.2E1,9.585765E3,6.5218574E3,3E0,5E0,1E1,4.4628E4,6.9828E4,1E1,5E0,1E1,1.51813E5,2.512E4,6E0,5.05557E3,5E0,8.271E3,5E0,5E0,3E0,5E0,1E0,4E0,5.8715E4,2E0,9E0,5E0,3.7539158E3,1.51813E5,5E0,5E0,3E0,5.918246E3,4E0,2.7859E4,3.7453367E3,3.199E4,-1.2829458E3,-5.865342E2,-1.0239355E3,9.0949524E2,-1.3554425E3,-1.7586332E3,-7.486707E2,-1.377441E3,-1.1230955E3,-1.1529659E2,1.9942257E0,1.4679705E3,3.8549023E2,2.12419E3,1.3768412E3,-8.214415E2,-7.3408417E2,-5.132162E2,-1.4572823E2,-3.4421625E2,4.0357736E2,1.819826E3,-1.1117803E2,1.0733461E3,1.4932827E3,2.9517014E3,1.4653984E3,3.064571E3,3.568095E2,1.0832312E3,6.8246967E2,1.9320192E3,1.2666648E3,3.819996E2,8.284237E3,2.813538E3,5.3811523E2,2.3152996E3],"split_indices":[4,1,1,4,1,2,2,4,1,4,4,4,4,0,0,4,2,4,1,1,4,2,4,1,1,2,0,2,1,4,4,2,2,2,2,1,4,4,2,0,1,2,2,2,0,2,1,0,1,0,0,0,0,0,0,0,0,0,0,0,0,0,0,0,0,0,0,0,0,0,0,0,0,0,0,0,0,0,0,0,0,0,0,0,0,0,0],"split_type":[0,0,0,0,0,0,0,0,0,0,0,0,0,0,0,0,0,0,0,0,0,0,0,0,0,0,0,0,0,0,0,0,0,0,0,0,0,0,0,0,0,0,0,0,0,0,0,0,0,0,0,0,0,0,0,0,0,0,0,0,0,0,0,0,0,0,0,0,0,0,0,0,0,0,0,0,0,0,0,0,0,0,0,0,0,0,0],"sum_hessian":[2.089E3,1.703E3,3.86E2,1.31E3,3.93E2,3.52E2,3.4E1,1.106E3,2.04E2,2.69E2,1.24E2,2.73E2,7.9E1,1.7E1,1.7E1,3.44E2,7.62E2,1.83E2,2.1E1,7.2E1,1.97E2,4.6E1,7.8E1,1.4E2,1.33E2,4.6E1,3.3E1,2.66E2,7.8E1,5.21E2,2.41E2,9.6E1,8.7E1,9E0,1.2E1,4.3E1,2.9E1,1.21E2,7.6E1,2.7E1,1.9E1,5.7E1,2.1E1,1.37E2,3E0,2.7E1,1.06E2,3E1,1.6E1,2.02E2,6.4E1,1.6E1,6.2E1,1.17E2,4.04E2,3E1,2.11E2,5.1E1,4.5E1,7.7E1,1E1,1E0,8E0,6E0,6E0,1.4E1,2.9E1,1.5E1,1.4E1,8.9E1,3.2E1,5.4E1,2.2E1,8E0,1.1E1,3.7E1,2E1,8E0,1.3E1,9.2E1,4.5E1,2.2E1,5E0,4E0,1.02E2,1E0,1.5E1],"tree_param":{"num_deleted":"0","num_feature":"5","num_nodes":"87","size_leaf_vector":"1"}},{"base_weights":[6.0793616E2,-1.2533967E4,5.940088E4,-1.8635697E4,3.2572604E4,4.6634965E4,1.5640642E5,-2.2533855E4,4.8629904E2,2.4286564E4,5.82879E4,2.9701906E4,6.4522668E4,1.8803664E5,1.12809695E5,-1.0530539E4,-2.9010363E4,-4.9686055E3,1.2998371E4,1.5180879E4,3.2112275E4,5.8971027E4,6.374422E2,1.3204752E4,4.5319133E4,3.8132766E4,7.785324E4,5.3987993E3,1.0171114E4,4.738228E3,7.5800596E3,-1.904695E4,1.1326175E4,-3.1733979E4,-2.4402902E4,-1.0933884E4,2.3836304E3,2.9256395E4,3.8175273E3,3.5899255E3,2.0672738E4,4.9221684E4,2.5523256E4,3.2526746E3,4.805293E4,9.3511986E1,1.3449444E4,5.095044E3,4.9725574E4,2.0879643E4,5.296459E4,1.0773135E4,6.90813E4,-1.1429023E3,-5.2119745E2,-9.3549365E2,7.9745996E2,-1.1973141E3,-1.6494358E3,-1.2856235E3,-9.524668E2,-9.684329E2,4.8723465E1,-6.868774E1,1.6297675E3,7.666639E2,1.7522272E3,-1.7319185E2,9.292006E2,1.4019663E3,-5.092992E1,-1.9027806E2,1.3069421E3,3.5246138E3,1.841972E3,8.5467737E2,1.7908782E3,1.737567E3,2.9604775E3,6.237552E2,8.943083E2,8.605964E1,4.0623282E2,3.2892253E3,1.7363186E3,7.2889343E2,1.3070072E3,3.9242407E3,1.286455E3,2.220979E3,4.201723E3],"categories":[],"categories_nodes":[],"categories_segments":[],"categories_sizes":[],"default_left":[0,0,0,0,0,0,0,0,0,0,0,0,0,0,0,0,0,0,0,0,0,0,0,0,0,0,0,0,0,0,0,0,0,0,0,0,0,0,0,0,0,0,0,0,0,0,0,0,0,0,0,0,0,0,0,0,0,0,0,0,0,0,0,0,0,0,0,0,0,0,0,0,0,0,0,0,0,0,0,0,0,0,0,0,0,0,0,0,0,0,0],"id":17,"left_children":[1,3,5,7,9,11,13,15,17,19,21,23,25,27,29,31,33,35,37,39,41,43,-1,45,47,49,51,-1,-1,-1,-1,53,55,57,59,61,63,65,67,69,71,73,75,-1,77,-1,79,81,83,85,87,-1,89,-1,-1,-1,-1,-1,-1,-1,-1,-1,-1,-1,-1,-1,-1,-1,-1,-1,-1,-1,-1,-1,-1,-1,-1,-1,-1,-1,-1,-1,-1,-1,-1,-1,-1,-1,-1,-1,-1],"loss_changes":[1.6155855E12,4.7097184E11,4.657612E11,1.1226903E11,4.205229E10,1.0076448E11,3.9462568E10,9.694675E10,1.7537137E10,1.0628825E10,7.72522E8,4.474618E10,5.472518E10,7.5981783E9,3.335127E8,8.211766E10,9.41536E9,7.876668E9,1.1530779E10,4.636322E9,8.100643E9,6.1620224E7,0E0,2.161367E8,1.569869E10,1.3480141E10,1.1548256E11,0E0,0E0,0E0,0E0,1.017933E10,1.7516724E10,4.164223E9,1.6555049E9,9.962858E9,9.23966E9,1.7191465E9,5.5478994E9,2.8454523E9,6.7895173E9,3.1974154E9,4.7679857E9,0E0,1.0587996E9,0E0,1.4431232E8,8.823054E7,1.7226121E10,5.471457E8,1.8832335E10,0E0,3.425062E10,0E0,0E0,0E0,0E0,0E0,0E0,0E0,0E0,0E0,0E0,0E0,0E0,0E0,0E0,0E0,0E0,0E0,0E0,0E0,0E0,0E0,0E0,0E0,0E0,0E0,0E0,0E0,0E0,0E0,0E0,0E0,0E0,0E0,0E0,0E0,0E0,0E0,0E0],"parents":[2147483647,0,0,1,1,2,2,3,3,4,4,5,5,6,6,7,7,8,8,9,9,10,10,11,11,12,12,13,13,14,14,15,15,16,16,17,17,18,18,19,19,20,20,21,21,23,23,24,24,25,25,26,26,31,31,32,32,33,33,34,34,35,35,36,36,37,37,38,38,39,39,40,40,41,41,42,42,44,44,46,46,47,47,48,48,49,49,50,50,52,52],"right_children":[2,4,6,8,10,12,14,16,18,20,22,24,26,28,30,32,34,36,38,40,42,44,-1,46,48,50,52,-1,-1,-1,-1,54,56,58,60,62,64,66,68,70,72,74,76,-1,78,-1,80,82,84,86,88,-1,90,-1,-1,-1,-1,-1,-1,-1,-1,-1,-1,-1,-1,-1,-1,-1,-1,-1,-1,-1,-1,-1,-1,-1,-1,-1,-1,-1,-1,-1,-1,-1,-1,-1,-1,-1,-1,-1,-1],"split_conditions":[1.1E1,8.2129E4,2.24403E5,9E0,1.58676E5,1.2E1,5E0,4E0,4.1242E4,1.04764E5,1E1,3E0,5.0483E4,1.2E1,3.42682E5,3E0,2.0574E4,1E1,1E1,2E0,4E0,4E0,6.374422E2,3.246E3,1.6272E4,2E0,5.5088E4,5.3987993E3,1.0171114E4,4.738228E3,7.5800596E3,5E0,8.271E3,5E0,3.9293E4,3E0,5E0,4.8683E4,5E0,8.3469E4,3E0,4E0,5E0,3.2526746E3,5E0,9.3511986E1,1.28897E5,4E0,9.6285E4,1E0,2.7859E4,1.0773135E4,2E0,-1.1429023E3,-5.2119745E2,-9.3549365E2,7.9745996E2,-1.1973141E3,-1.6494358E3,-1.2856235E3,-9.524668E2,-9.684329E2,4.8723465E1,-6.868774E1,1.6297675E3,7.666639E2,1.7522272E3,-1.7319185E2,9.292006E2,1.4019663E3,-5.092992E1,-1.9027806E2,1.3069421E3,3.5246138E3,1.841972E3,8.5467737E2,1.7908782E3,1.737567E3,2.9604775E3,6.237552E2,8.943083E2,8.605964E1,4.0623282E2,3.2892253E3,1.7363186E3,7.2889343E2,1.3070072E3,3.9242407E3,1.286455E3,2.220979E3,4.201723E3],"split_indices":[4,1,1,4,1,4,2,4,1,1,4,2,1,4,1,4,1,4,4,2,4,4,0,1,1,2,1,0,0,0,0,2,1,4,1,2,2,1,2,1,4,2,2,0,2,0,1,2,1,2,1,0,2,0,0,0,0,0,0,0,0,0,0,0,0,0,0,0,0,0,0,0,0,0,0,0,0,0,0,0,0,0,0,0,0,0,0,0,0,0,0],"split_type":[0,0,0,0,0,0,0,0,0,0,0,0,0,0,0,0,0,0,0,0,0,0,0,0,0,0,0,0,0,0,0,0,0,0,0,0,0,0,0,0,0,0,0,0,0,0,0,0,0,0,0,0,0,0,0,0,0,0,0,0,0,0,0,0,0,0,0,0,0,0,0,0,0,0,0,0,0,0,0,0,0,0,0,0,0,0,0,0,0,0,0],"sum_hessian":[2.089E3,1.708E3,3.81E2,1.505E3,2.03E2,3.38E2,4.3E1,1.25E3,2.55E2,1.55E2,4.8E1,1.75E2,1.63E2,2.3E1,2E1,4.39E2,8.11E2,1.78E2,7.7E1,7.3E1,8.2E1,4.7E1,1E0,8.6E1,8.9E1,5.6E1,1.07E2,5E0,1.8E1,1.6E1,4E0,3.16E2,1.23E2,5.06E2,3.05E2,9.8E1,8E1,2.7E1,5E1,2.4E1,4.9E1,2.1E1,6.1E1,2.7E1,2E1,2E0,8.4E1,9E0,8E1,2.7E1,2.9E1,5E0,1.02E2,2.18E2,9.8E1,1.6E1,1.07E2,7.3E1,4.33E2,2.42E2,6.3E1,5.7E1,4.1E1,7.2E1,8E0,9E0,1.8E1,3.4E1,1.6E1,3E0,2.1E1,9E0,4E1,6E0,1.5E1,3.5E1,2.6E1,1.1E1,9E0,7.2E1,1.2E1,5E0,4E0,3.7E1,4.3E1,1.4E1,1.3E1,1.4E1,1.5E1,4E1,6.2E1],"tree_param":{"num_deleted":"0","num_feature":"5","num_nodes":"91","size_leaf_vector":"1"}},{"base_weights":[3.8711816E2,-1.1879369E4,5.61633E4,-1.8388139E4,2.9595422E4,4.3758234E4,1.5554339E5,-2.2136006E4,-2.3123247E2,2.126736E4,5.421915E4,3.44653E4,7.008377E4,1.8488894E5,1.1028884E5,-1.2265215E4,-2.7707816E4,-6.323615E3,1.5595251E4,1.4771157E4,3.0408865E4,3.1516858E3,4.1437668E4,2.1180553E4,4.800571E4,5.5935023E4,4.4955444E3,4.5439746E3,9.699563E3,3.331036E3,6.7995522E3,-1.9308207E4,7.546392E3,-3.0209125E4,-2.3365906E4,-3.2161982E4,-3.5505903E3,3.2551982E4,2.708252E3,-3.064525E3,1.7518592E4,3.7041195E4,1.7737443E4,8.578969E2,4.269373E4,1.2877347E4,3.768059E4,2.7313541E4,6.0550008E4,1.3378698E3,5.7734086E4,-1.1451818E3,-5.4113153E2,-9.955218E2,6.002418E2,-1.5746355E3,-1.2158228E3,-1.2282195E3,-9.182876E2,-2.1134548E3,-2.4514505E2,-4.6261752E2,1.0630784E2,8.302842E2,2.0874675E3,-2.3557951E2,9.8113196E2,-1.8513072E2,3.610182E1,1.1999827E3,4.2466113E2,9.238525E2,2.0187728E3,2.689681E2,1.0896903E3,2.2066755E3,8.712083E2,5.147267E2,7.7305176E2,1.6492812E3,4.4642446E3,1.783243E3,6.7104443E2,9.327587E3,2.5545151E3,3.152075E3,2.239819E3],"categories":[],"categories_nodes":[],"categories_segments":[],"categories_sizes":[],"default_left":[0,0,0,0,0,0,0,0,0,0,0,0,0,0,0,0,0,0,0,0,0,0,0,0,0,0,0,0,0,0,0,0,0,0,0,0,0,0,0,0,0,0,0,0,0,0,0,0,0,0,0,0,0,0,0,0,0,0,0,0,0,0,0,0,0,0,0,0,0,0,0,0,0,0,0,0,0,0,0,0,0,0,0,0,0,0,0],"id":18,"left_children":[1,3,5,7,9,11,13,15,17,19,21,23,25,27,29,31,33,35,37,39,41,-1,43,45,47,49,-1,-1,-1,-1,-1,51,53,55,57,59,61,63,65,67,69,71,73,-1,75,77,79,81,83,-1,85,-1,-1,-1,-1,-1,-1,-1,-1,-1,-1,-1,-1,-1,-1,-1,-1,-1,-1,-1,-1,-1,-1,-1,-1,-1,-1,-1,-1,-1,-1,-1,-1,-1,-1,-1,-1],"loss_changes":[1.4497558E12,4.6944708E11,4.6412962E11,1.0220546E11,4.724292E10,8.1007346E10,3.5385704E10,6.813293E10,2.4975233E10,1.0121372E10,4.0351498E9,4.4672975E10,1.965736E10,2.9069804E9,1.2265161E10,6.307508E10,7.928152E9,1.3284438E10,1.5645381E10,5.2479406E9,5.477978E9,0E0,9.087795E7,1.7325191E10,3.0792253E10,1.2897649E9,0E0,0E0,0E0,0E0,0E0,9.911722E9,1.4806372E10,3.0236344E9,1.3166838E9,4.75195E9,5.522139E9,3.8533018E9,5.363541E9,3.891589E7,5.177608E9,2.1631672E9,1.236243E9,0E0,1.4057472E8,4.2807603E8,7.472939E9,5.2064215E9,8.2248335E10,0E0,6.092554E8,0E0,0E0,0E0,0E0,0E0,0E0,0E0,0E0,0E0,0E0,0E0,0E0,0E0,0E0,0E0,0E0,0E0,0E0,0E0,0E0,0E0,0E0,0E0,0E0,0E0,0E0,0E0,0E0,0E0,0E0,0E0,0E0,0E0,0E0,0E0,0E0],"parents":[2147483647,0,0,1,1,2,2,3,3,4,4,5,5,6,6,7,7,8,8,9,9,10,10,11,11,12,12,13,13,14,14,15,15,16,16,17,17,18,18,19,19,20,20,22,22,23,23,24,24,25,25,31,31,32,32,33,33,34,34,35,35,36,36,37,37,38,38,39,39,40,40,41,41,42,42,44,44,45,45,46,46,47,47,48,48,50,50],"right_children":[2,4,6,8,10,12,14,16,18,20,22,24,26,28,30,32,34,36,38,40,42,-1,44,46,48,50,-1,-1,-1,-1,-1,52,54,56,58,60,62,64,66,68,70,72,74,-1,76,78,80,82,84,-1,86,-1,-1,-1,-1,-1,-1,-1,-1,-1,-1,-1,-1,-1,-1,-1,-1,-1,-1,-1,-1,-1,-1,-1,-1,-1,-1,-1,-1,-1,-1,-1,-1,-1,-1,-1,-1],"split_conditions":[1.1E1,7.971E4,2.44125E5,9E0,1.58676E5,5E0,5E0,4E0,4.1242E4,1.11406E5,4E0,1.2E1,1.2E1,1.2E1,2.86753E5,3E0,2.0278E4,4.596E3,1E1,3E0,1E1,3.1516858E3,1.63056E5,3E0,4.9452E4,3.199E4,4.4955444E3,4.5439746E3,9.699563E3,3.331036E3,6.7995522E3,5E0,8.271E3,8E0,3.9293E4,1E1,1E1,4.8683E4,5E0,9.0008E4,1E1,1E0,5E0,8.578969E2,1E1,6.6612E4,1.51813E5,2.6706E4,5.5088E4,1.3378698E3,6E0,-1.1451818E3,-5.4113153E2,-9.955218E2,6.002418E2,-1.5746355E3,-1.2158228E3,-1.2282195E3,-9.182876E2,-2.1134548E3,-2.4514505E2,-4.6261752E2,1.0630784E2,8.302842E2,2.0874675E3,-2.3557951E2,9.8113196E2,-1.8513072E2,3.610182E1,1.1999827E3,4.2466113E2,9.238525E2,2.0187728E3,2.689681E2,1.0896903E3,2.2066755E3,8.712083E2,5.147267E2,7.7305176E2,1.6492812E3,4.4642446E3,1.783243E3,6.7104443E2,9.327587E3,2.5545151E3,3.152075E3,2.239819E3],"split_indices":[4,1,1,4,1,2,2,4,1,1,4,4,4,4,1,4,1,1,4,4,4,0,1,2,1,1,0,0,0,0,0,2,1,4,1,4,4,1,2,1,4,2,2,0,4,1,1,1,1,0,2,0,0,0,0,0,0,0,0,0,0,0,0,0,0,0,0,0,0,0,0,0,0,0,0,0,0,0,0,0,0,0,0,0,0,0,0],"split_type":[0,0,0,0,0,0,0,0,0,0,0,0,0,0,0,0,0,0,0,0,0,0,0,0,0,0,0,0,0,0,0,0,0,0,0,0,0,0,0,0,0,0,0,0,0,0,0,0,0,0,0,0,0,0,0,0,0,0,0,0,0,0,0,0,0,0,0,0,0,0,0,0,0,0,0,0,0,0,0,0,0,0,0,0,0,0,0],"sum_hessian":[2.117E3,1.736E3,3.81E2,1.501E3,2.35E2,3.4E2,4.1E1,1.244E3,2.57E2,1.77E2,5.8E1,2.53E2,8.7E1,2.3E1,1.8E1,4.5E2,7.94E2,1.86E2,7.1E1,1.05E2,7.2E1,3.2E1,2.6E1,1.29E2,1.24E2,5.3E1,3.4E1,3E0,2E1,8E0,1E1,3.32E2,1.18E2,5E2,2.94E2,1.7E1,1.69E2,3E1,4.1E1,1.4E1,9.1E1,4.6E1,2.6E1,2E0,2.4E1,8.7E1,4.2E1,4.8E1,7.6E1,4E0,4.9E1,2.32E2,1E2,1.6E1,1.02E2,4.07E2,9.3E1,2.34E2,6E1,1.2E1,5E0,8.4E1,8.5E1,1.2E1,1.8E1,2.9E1,1.2E1,1.2E1,2E0,5.2E1,3.9E1,8E0,3.8E1,7E0,1.9E1,2.2E1,2E0,4.6E1,4.1E1,4E1,2E0,2.9E1,1.9E1,4E0,7.2E1,3.2E1,1.7E1],"tree_param":{"num_deleted":"0","num_feature":"5","num_nodes":"87","size_leaf_vector":"1"}},{"base_weights":[1.2999624E3,-1.1028137E4,5.3606156E4,-1.679339E4,3.386654E4,4.383575E4,1.4267053E5,-2.1169293E4,-3.3601008E3,2.278529E4,4.8588902E4,5.9753207E4,2.2535547E4,1.501502E5,1.9842893E3,-1.1509448E4,-2.7409646E4,3.2741352E4,-1.52524795E4,5.5253066E4,7.309636E3,5.9231867E4,3.9403035E4,3.891834E4,1.4265162E5,1.3176004E4,5.3368023E4,1.1855455E5,8.609015E3,-1.717524E4,2.1372006E4,-2.8189086E4,-4.7030825E3,5.9652766E4,2.064503E4,-2.0344623E4,-8.532716E3,6.236671E4,8.4363574E2,-7.177074E3,1.2179025E4,3.024723E3,3.760305E2,2.5608227E4,2.5778025E3,6.1713188E4,1.6470154E4,1.1712074E4,8.648497E4,9.761893E3,2.0394237E3,3.932825E3,3.1559283E4,8.500308E3,7.03575E4,-1.0381531E3,-1.0050244E2,2.5300652E3,1.1575427E2,-1.3551398E3,-2.0936443E3,-4.9081076E2,1.7184625E2,3.5048848E3,1.2389115E3,2.1370732E3,2.4202223E1,-7.472423E2,-1.1884106E3,3.0778217E1,-7.0389667E2,3.5562544E3,2.4433335E3,-6.665151E2,-4.653853E1,9.676266E2,1.3028831E2,-3.4088673E1,1.3390457E3,1.1056489E3,6.30743E3,4.4298337E2,2.4368328E3,6.6372456E3,3.0010264E3,6.342013E2,2.3030318E2,1.0802338E3,1.9322432E3,5.0476343E3,1.9226364E3],"categories":[],"categories_nodes":[],"categories_segments":[],"categories_sizes":[],"default_left":[0,0,0,0,0,0,0,0,0,0,0,0,0,0,0,0,0,0,0,0,0,0,0,0,0,0,0,0,0,0,0,0,0,0,0,0,0,0,0,0,0,0,0,0,0,0,0,0,0,0,0,0,0,0,0,0,0,0,0,0,0,0,0,0,0,0,0,0,0,0,0,0,0,0,0,0,0,0,0,0,0,0,0,0,0,0,0,0,0,0,0],"id":19,"left_children":[1,3,5,7,9,11,13,15,17,19,21,23,25,27,-1,29,31,33,35,37,39,41,43,45,47,49,51,53,-1,55,57,59,61,63,65,67,69,71,-1,73,75,-1,-1,77,-1,79,81,-1,83,85,-1,-1,87,-1,89,-1,-1,-1,-1,-1,-1,-1,-1,-1,-1,-1,-1,-1,-1,-1,-1,-1,-1,-1,-1,-1,-1,-1,-1,-1,-1,-1,-1,-1,-1,-1,-1,-1,-1,-1,-1],"loss_changes":[1.3489432E12,4.3876653E11,3.409538E11,8.816178E10,3.0379327E10,1.2104866E11,2.408258E10,6.7922493E10,1.5935229E11,5.5871644E10,5.682807E9,3.502468E11,4.4314984E10,4.645257E9,0E0,8.345664E10,1.2026184E10,2.8717146E10,9.373221E9,8.776573E9,5.5191E9,1.8954813E9,6.559228E9,8.392625E10,1.9065772E11,1.1008741E10,1.7372004E10,3.267548E10,0E0,2.0688462E10,3.66462E10,8.735195E9,1.03264026E9,8.4624425E9,2.8935893E10,2.565677E9,6.197627E9,7.150797E7,0E0,7.5629094E8,3.9326546E9,0E0,0E0,7.5817574E8,0E0,2.0644623E11,2.044114E10,0E0,2.5087148E10,1.5837737E9,0E0,0E0,6.4630784E8,0E0,6.855553E9,0E0,0E0,0E0,0E0,0E0,0E0,0E0,0E0,0E0,0E0,0E0,0E0,0E0,0E0,0E0,0E0,0E0,0E0,0E0,0E0,0E0,0E0,0E0,0E0,0E0,0E0,0E0,0E0,0E0,0E0,0E0,0E0,0E0,0E0,0E0,0E0],"parents":[2147483647,0,0,1,1,2,2,3,3,4,4,5,5,6,6,7,7,8,8,9,9,10,10,11,11,12,12,13,13,15,15,16,16,17,17,18,18,19,19,20,20,21,21,22,22,23,23,24,24,25,25,26,26,27,27,29,29,30,30,31,31,32,32,33,33,34,34,35,35,36,36,37,37,39,39,40,40,43,43,45,45,46,46,48,48,49,49,52,52,54,54],"right_children":[2,4,6,8,10,12,14,16,18,20,22,24,26,28,-1,30,32,34,36,38,40,42,44,46,48,50,52,54,-1,56,58,60,62,64,66,68,70,72,-1,74,76,-1,-1,78,-1,80,82,-1,84,86,-1,-1,88,-1,90,-1,-1,-1,-1,-1,-1,-1,-1,-1,-1,-1,-1,-1,-1,-1,-1,-1,-1,-1,-1,-1,-1,-1,-1,-1,-1,-1,-1,-1,-1,-1,-1,-1,-1,-1,-1],"split_conditions":[1.1E1,8.699E4,2.44125E5,3.7176E4,1.39256E5,1.5E1,2E1,1.3E1,1.5E1,1.6E1,1.8E1,8.2129E4,1.87947E5,3.42682E5,1.9842893E3,1.7841E4,1E1,1.3E1,5.8715E4,1E1,4E0,1E1,1.82581E5,1.2E1,1E0,1E0,1.8E1,1.6E1,8.609015E3,9E0,1E0,9E0,2.8805E4,1E1,1E0,1.7E1,1.7E1,4E0,8.4363574E2,9.6285E4,1.8E1,3.024723E3,3.760305E2,4E0,2.5778025E3,2.325E4,6.4484E4,1.1712074E4,1.3E1,1.8E1,2.0394237E3,3.932825E3,1E0,8.500308E3,1.2E1,-1.0381531E3,-1.0050244E2,2.5300652E3,1.1575427E2,-1.3551398E3,-2.0936443E3,-4.9081076E2,1.7184625E2,3.5048848E3,1.2389115E3,2.1370732E3,2.4202223E1,-7.472423E2,-1.1884106E3,3.0778217E1,-7.0389667E2,3.5562544E3,2.4433335E3,-6.665151E2,-4.653853E1,9.676266E2,1.3028831E2,-3.4088673E1,1.3390457E3,1.1056489E3,6.30743E3,4.4298337E2,2.4368328E3,6.6372456E3,3.0010264E3,6.342013E2,2.3030318E2,1.0802338E3,1.9322432E3,5.0476343E3,1.9226364E3],"split_indices":[4,1,1,1,1,0,0,0,0,0,0,1,1,1,0,1,4,0,1,4,4,4,1,0,3,3,0,0,0,4,3,4,1,4,3,0,0,4,0,1,0,0,0,4,0,1,1,0,0,0,0,0,3,0,4,0,0,0,0,0,0,0,0,0,0,0,0,0,0,0,0,0,0,0,0,0,0,0,0,0,0,0,0,0,0,0,0,0,0,0,0],"split_type":[0,0,0,0,0,0,0,0,0,0,0,0,0,0,0,0,0,0,0,0,0,0,0,0,0,0,0,0,0,0,0,0,0,0,0,0,0,0,0,0,0,0,0,0,0,0,0,0,0,0,0,0,0,0,0,0,0,0,0,0,0,0,0,0,0,0,0,0,0,0,0,0,0,0,0,0,0,0,0,0,0,0,0,0,0,0,0,0,0,0,0],"sum_hessian":[2.09E3,1.692E3,3.98E2,1.5E3,1.92E2,3.6E2,3.8E1,1.131E3,3.69E2,1.11E2,8.1E1,2.05E2,1.55E2,3.5E1,3E0,4.45E2,6.86E2,9.1E1,2.78E2,3.5E1,7.6E1,3.5E1,4.6E1,1.65E2,4E1,1.2E2,3.5E1,1.7E1,1.8E1,3.8E2,6.5E1,6.63E2,2.3E1,2.7E1,6.4E1,1.57E2,1.21E2,2.9E1,6E0,1.9E1,5.7E1,3.4E1,1E0,2.3E1,2.3E1,8.1E1,8.4E1,1.4E1,2.6E1,1.08E2,1.2E1,1.5E1,2E1,7E0,1E1,3.07E2,7.3E1,2.5E1,4E1,6.17E2,4.6E1,1.4E1,9E0,2E1,7E0,3E1,3.4E1,6.3E1,9.4E1,4.6E1,7.5E1,1.5E1,1.4E1,9E0,1E1,3.2E1,2.5E1,1E0,2.2E1,5.1E1,3E1,6.9E1,1.5E1,8E0,1.8E1,6.8E1,4E1,1E1,1E1,4E0,6E0],"tree_param":{"num_deleted":"0","num_feature":"5","num_nodes":"91","size_leaf_vector":"1"}},{"base_weights":[4.7526416E2,-1.0516176E4,4.8954152E4,-1.7448064E4,2.0655693E4,3.732479E4,1.3780002E5,-7.759767E3,-2.2587885E4,4.624927E4,1.1148724E4,5.457748E4,2.1105027E4,1.6396611E5,1.00088E5,-1.5325557E4,2.8136002E4,-2.5409775E4,-1.0450471E4,5.4157926E4,8.919121E2,-2.041473E3,4.415515E4,3.0139363E4,1.0851368E5,1.2312027E4,5.7432625E4,4.450437E3,8.70026E3,7.523798E3,7.493702E4,-1.8855188E4,-8.871036E2,-1.0946016E4,4.0144887E4,-2.941264E4,-2.1786549E4,1.5465039E4,-1.699308E4,6.5510457E4,3.4172863E4,-9.263213E3,1.1565615E4,2.6804084E4,4.9627883E4,5.5617715E4,1.7179932E4,1.6287581E5,7.982841E4,8.757278E3,3.898026E4,1.514214E5,4.042048E4,5.3069957E4,6.3635366E3,-4.8909918E2,-1.2068553E3,-9.907256E2,6.269146E2,-7.744118E2,-2.7043515E2,3.24454E3,1.3577388E3,-1.2818798E3,-1.5872428E3,-5.395819E2,-1.2726102E3,1.7386729E3,-2.887618E2,-4.0262137E2,-9.8793896E2,4.0656384E3,2.715254E3,3.5015347E2,2.4072466E3,-2.848715E1,-6.1306647E2,9.255129E2,1.453286E2,1.42295E3,-3.323633E1,2.812171E3,2.0196611E3,7.601496E2,5.963387E3,4.0654425E2,1.5464536E3,1.0394676E4,5.5287036E3,3.1300427E3,7.776633E3,5.7677883E1,5.406555E2,6.7728827E2,2.0734238E3,8.98656E3,9.545563E2,2.9899377E3,1.4172587E3,6.919185E2,2.9472468E3],"categories":[],"categories_nodes":[],"categories_segments":[],"categories_sizes":[],"default_left":[0,0,0,0,0,0,0,0,0,0,0,0,0,0,0,0,0,0,0,0,0,0,0,0,0,0,0,0,0,0,0,0,0,0,0,0,0,0,0,0,0,0,0,0,0,0,0,0,0,0,0,0,0,0,0,0,0,0,0,0,0,0,0,0,0,0,0,0,0,0,0,0,0,0,0,0,0,0,0,0,0,0,0,0,0,0,0,0,0,0,0,0,0,0,0,0,0,0,0,0,0],"id":20,"left_children":[1,3,5,7,9,11,13,15,17,19,21,23,25,27,29,31,33,35,37,39,-1,41,43,45,47,49,51,-1,-1,-1,53,55,57,59,61,63,65,67,69,71,73,75,77,79,81,83,85,87,89,91,93,95,97,99,-1,-1,-1,-1,-1,-1,-1,-1,-1,-1,-1,-1,-1,-1,-1,-1,-1,-1,-1,-1,-1,-1,-1,-1,-1,-1,-1,-1,-1,-1,-1,-1,-1,-1,-1,-1,-1,-1,-1,-1,-1,-1,-1,-1,-1,-1,-1],"loss_changes":[1.1301627E12,3.7396257E11,3.9987924E11,7.028621E10,7.612935E10,9.623057E10,2.7993833E10,1.3404849E11,3.138188E10,1.8132828E10,1.00658586E11,2.181701E11,5.710947E10,3.3246413E9,1.5337226E10,2.0724982E10,4.0801923E10,1.0222174E10,3.0104486E10,1.2735463E10,0E0,1.6419432E10,4.9369825E9,3.767613E10,6.8086268E10,1.3594073E10,4.984274E10,0E0,0E0,0E0,1.1555906E10,1.5435014E10,2.083118E10,4.4441472E8,1.9453747E10,2.2940221E9,1.5725822E10,1.4965004E10,3.3274184E9,2.8442132E9,9.53291E9,2.8339937E9,3.4339676E9,8.371712E8,7.2165786E8,9.851031E10,9.577431E9,1.7038967E10,3.7214667E10,2.0353147E9,5.1414835E8,1.5299936E10,5.558952E9,2.1805998E9,0E0,0E0,0E0,0E0,0E0,0E0,0E0,0E0,0E0,0E0,0E0,0E0,0E0,0E0,0E0,0E0,0E0,0E0,0E0,0E0,0E0,0E0,0E0,0E0,0E0,0E0,0E0,0E0,0E0,0E0,0E0,0E0,0E0,0E0,0E0,0E0,0E0,0E0,0E0,0E0,0E0,0E0,0E0,0E0,0E0,0E0,0E0],"parents":[2147483647,0,0,1,1,2,2,3,3,4,4,5,5,6,6,7,7,8,8,9,9,10,10,11,11,12,12,13,13,14,14,15,15,16,16,17,17,18,18,19,19,21,21,22,22,23,23,24,24,25,25,26,26,30,30,31,31,32,32,33,33,34,34,35,35,36,36,37,37,38,38,39,39,40,40,41,41,42,42,43,43,44,44,45,45,46,46,47,47,48,48,49,49,50,50,51,51,52,52,53,53],"right_children":[2,4,6,8,10,12,14,16,18,20,22,24,26,28,30,32,34,36,38,40,-1,42,44,46,48,50,52,-1,-1,-1,54,56,58,60,62,64,66,68,70,72,74,76,78,80,82,84,86,88,90,92,94,96,98,100,-1,-1,-1,-1,-1,-1,-1,-1,-1,-1,-1,-1,-1,-1,-1,-1,-1,-1,-1,-1,-1,-1,-1,-1,-1,-1,-1,-1,-1,-1,-1,-1,-1,-1,-1,-1,-1,-1,-1,-1,-1,-1,-1,-1,-1,-1,-1],"split_conditions":[1.1E1,6.0708E4,2.44125E5,1.3E1,1.6E1,1.4E1,1E0,1.8148E4,3.9622E4,1E1,1.39256E5,4.9452E4,1.87947E5,1.2E1,1.7E1,9E0,3E0,2.0278E4,1.5E1,1.5E1,8.919121E2,9.6285E4,1.58676E5,1.1E1,1E0,1E0,1.6E1,4.450437E3,8.70026E3,7.523798E3,3.42682E5,4E0,7.072E3,2.4537E4,4E0,6E0,1.5E1,1E0,1.6E1,1E0,7.971E4,1.7E1,1.8E1,2E1,4E0,1.2239E4,3.2588E4,1.3E1,1.11406E5,6.7417E4,1.15335E5,1E0,1.8E1,1.8E1,6.3635366E3,-4.8909918E2,-1.2068553E3,-9.907256E2,6.269146E2,-7.744118E2,-2.7043515E2,3.24454E3,1.3577388E3,-1.2818798E3,-1.5872428E3,-5.395819E2,-1.2726102E3,1.7386729E3,-2.887618E2,-4.0262137E2,-9.8793896E2,4.0656384E3,2.715254E3,3.5015347E2,2.4072466E3,-2.848715E1,-6.1306647E2,9.255129E2,1.453286E2,1.42295E3,-3.323633E1,2.812171E3,2.0196611E3,7.601496E2,5.963387E3,4.0654425E2,1.5464536E3,1.0394676E4,5.5287036E3,3.1300427E3,7.776633E3,5.7677883E1,5.406555E2,6.7728827E2,2.0734238E3,8.98656E3,9.545563E2,2.9899377E3,1.4172587E3,6.919185E2,2.9472468E3],"split_indices":[4,1,1,0,0,0,3,1,1,4,1,1,1,4,0,4,4,1,0,0,0,1,1,0,3,3,0,0,0,0,1,4,1,1,4,4,0,3,0,3,1,0,0,0,4,1,1,0,1,1,1,3,0,0,0,0,0,0,0,0,0,0,0,0,0,0,0,0,0,0,0,0,0,0,0,0,0,0,0,0,0,0,0,0,0,0,0,0,0,0,0,0,0,0,0,0,0,0,0,0,0],"split_type":[0,0,0,0,0,0,0,0,0,0,0,0,0,0,0,0,0,0,0,0,0,0,0,0,0,0,0,0,0,0,0,0,0,0,0,0,0,0,0,0,0,0,0,0,0,0,0,0,0,0,0,0,0,0,0,0,0,0,0,0,0,0,0,0,0,0,0,0,0,0,0,0,0,0,0,0,0,0,0,0,0,0,0,0,0,0,0,0,0,0,0,0,0,0,0,0,0,0,0,0,0],"sum_hessian":[2.119E3,1.728E3,3.91E2,1.414E3,3.14E2,3.47E2,4.4E1,4.91E2,9.23E2,8.4E1,2.3E2,1.67E2,1.8E2,2.4E1,2E1,4.06E2,8.5E1,7.48E2,1.75E2,6.5E1,1.9E1,1.65E2,6.5E1,1.16E2,5.1E1,1.46E2,3.4E1,4E0,2E1,5E0,1.5E1,3.26E2,8E1,2E1,6.5E1,3.52E2,3.96E2,3.5E1,1.4E2,4E1,2.5E1,1.08E2,5.7E1,1.7E1,4.8E1,3.8E1,7.8E1,1.6E1,3.5E1,1.3E2,1.6E1,4E0,3E1,1.2E1,3E0,1.21E2,2.05E2,3.3E1,4.7E1,1E1,1E1,2.1E1,4.4E1,1.39E2,2.13E2,1E2,2.96E2,1.8E1,1.7E1,3.4E1,1.06E2,1.4E1,2.6E1,9E0,1.6E1,2.8E1,8E1,3.1E1,2.6E1,1.6E1,1E0,2.5E1,2.3E1,2.4E1,1.4E1,4.8E1,3E1,7E0,9E0,3E1,5E0,2.8E1,1.02E2,2E0,1.4E1,3E0,1E0,1E1,2E1,2E0,1E1],"tree_param":{"num_deleted":"0","num_feature":"5","num_nodes":"101","size_leaf_vector":"1"}},{"base_weights":[1.3326036E2,-1.0982401E4,4.8452023E4,-1.7136652E4,2.0783852E4,4.0237594E4,1.3659575E5,-1.0146258E4,-2.2931049E4,8.639123E3,3.8868406E4,5.681195E4,1.8688021E4,7.2728516E3,1.7993563E3,-1.6740566E4,1.906316E4,-2.5875078E4,-1.3390033E4,4.025698E4,-4.0800125E3,2.6898237E3,2.8261969E4,3.8721234E4,1.4254108E5,1.0985752E4,5.2571027E4,-1.9621545E4,-4.1561484E3,3.5726246E4,6.229196E3,-2.9238102E4,